{"learner":{"attributes":{"scikit_learn":"{\"_estimator_type\": \"regressor\"}"},"feature_names":["environmentScore","socialScore","governanceScore","ESG Rating","Volatility","Returns","previous_volatility","previous_returns","2023","2024","abbvie","adobe","after","ai","alibaba","all","amazon","america","american","an","and","announces","apple","are","as","at","bank","billion","broadcom","business","by","caterpillar","ceo","chase","chevron","china","cloud","coca","cola","comcast","costco","data","deal","depot","disney","drug","earnings","express","first","for","from","gamble","generative","google","here","home","how","ibm","in","intel","is","it","its","jpmorgan","launches","lilly","lvmh","mastercard","mcdonald","merck","microsoft","million","more","new","next","nike","now","nvidia","of","on","oracle","our","over","pro","procter","quarter","sales","says","shell","stock","tencent","tesla","that","the","to","toyota","unilever","unitedhealth","up","us","visa","walmart","what","will","with","year","you","coef_x","coef_y","coef_z","coef_zero_shot"],"feature_types":["float","float","float","float","float","float","float","float","float","float","float","float","float","float","float","float","float","float","float","float","float","float","float","float","float","float","float","float","float","float","float","float","float","float","float","float","float","float","float","float","float","float","float","float","float","float","float","float","float","float","float","float","float","float","float","float","float","float","float","float","float","float","float","float","float","float","float","float","float","float","float","float","float","float","float","float","float","float","float","float","float","float","float","float","float","float","float","float","float","float","float","float","float","float","float","float","float","float","float","float","float","float","float","float","float","float","float","float","float","float","float"],"gradient_booster":{"model":{"gbtree_model_param":{"num_parallel_tree":"1","num_trees":"200"},"iteration_indptr":[0,1,2,3,4,5,6,7,8,9,10,11,12,13,14,15,16,17,18,19,20,21,22,23,24,25,26,27,28,29,30,31,32,33,34,35,36,37,38,39,40,41,42,43,44,45,46,47,48,49,50,51,52,53,54,55,56,57,58,59,60,61,62,63,64,65,66,67,68,69,70,71,72,73,74,75,76,77,78,79,80,81,82,83,84,85,86,87,88,89,90,91,92,93,94,95,96,97,98,99,100,101,102,103,104,105,106,107,108,109,110,111,112,113,114,115,116,117,118,119,120,121,122,123,124,125,126,127,128,129,130,131,132,133,134,135,136,137,138,139,140,141,142,143,144,145,146,147,148,149,150,151,152,153,154,155,156,157,158,159,160,161,162,163,164,165,166,167,168,169,170,171,172,173,174,175,176,177,178,179,180,181,182,183,184,185,186,187,188,189,190,191,192,193,194,195,196,197,198,199,200],"tree_info":[0,0,0,0,0,0,0,0,0,0,0,0,0,0,0,0,0,0,0,0,0,0,0,0,0,0,0,0,0,0,0,0,0,0,0,0,0,0,0,0,0,0,0,0,0,0,0,0,0,0,0,0,0,0,0,0,0,0,0,0,0,0,0,0,0,0,0,0,0,0,0,0,0,0,0,0,0,0,0,0,0,0,0,0,0,0,0,0,0,0,0,0,0,0,0,0,0,0,0,0,0,0,0,0,0,0,0,0,0,0,0,0,0,0,0,0,0,0,0,0,0,0,0,0,0,0,0,0,0,0,0,0,0,0,0,0,0,0,0,0,0,0,0,0,0,0,0,0,0,0,0,0,0,0,0,0,0,0,0,0,0,0,0,0,0,0,0,0,0,0,0,0,0,0,0,0,0,0,0,0,0,0,0,0,0,0,0,0,0,0,0,0,0,0,0,0,0,0,0,0],"trees":[{"base_weights":[5.2038E-1,1.6096556E2,-4.783891E1,2.2549153E2,-7.530994E1,-5.9876965E1,4.9634283E2,1.8117271E2,5.425307E2,-1.7500795E1,2.7819592E1,-1.5084247E2,-3.0184769E1,5.33639E2,3.0842554E1,4.813152E1,1.3157085E2,5.920175E1,4.261985E1,2.1186968E1,3.880235E1,-1.6780962E2,-1.0645986E2,-1.12081375E2,9.231226E0,1.5724887E1,5.4206745E1,2.1328427E2,1.6195517E1,2.5131395E1,1.4515265E0,4.016791E1,7.793892E-1,-1.7074733E2,2.2626226E0,-7.422726E1,-1.6543432E1,-1.2640843E2,2.26019E1,2.3068494E2,-3.4464127E1,2.6530243E1,1.01445045E2,-1.1609656E1,1.3755766E2,2.6000008E1,4.3138885E-1,4.136667E0,1.0493889E0,-1.9193396E1,-1.4924225E2,-2.3179162E0,-7.6138506E0,-1.10169304E2,-1.8532394E1,3.3998753E1,3.6199331E0,3.1901868E2,1.944009E2,-6.2686573E1,1.0722321E2,1.9418892E0,1.0262632E1,1.580899E1,8.276949E0,2.6965132E0,4.3138885E-1,-1.196714E1,-1.6538692E1,-1.191524E1,2.171457E0,1.3641857E0,3.5287893E0,3.188962E-2,1.0158228E0,1.1406852E1,3.277196E1,1.5349528E1,2.07784E1,-6.483411E0,3.476285E1,1.4463109E1,7.5416512E0],"categories":[],"categories_nodes":[],"categories_segments":[],"categories_sizes":[],"default_left":[0,0,0,0,0,0,0,0,0,0,0,0,0,0,0,0,0,0,0,0,0,0,0,0,0,0,0,0,0,0,0,0,0,0,0,0,0,0,0,0,0,0,0,0,0,0,0,0,0,0,0,0,0,0,0,0,0,0,0,0,0,0,0,0,0,0,0,0,0,0,0,0,0,0,0,0,0,0,0,0,0,0,0],"id":0,"left_children":[1,3,5,7,9,11,13,15,17,-1,19,21,23,25,-1,-1,27,-1,-1,29,31,33,35,37,39,-1,-1,41,43,45,-1,47,-1,49,-1,51,-1,53,55,57,59,-1,61,-1,63,65,-1,-1,-1,-1,67,-1,-1,69,-1,71,73,75,77,79,81,-1,-1,-1,-1,-1,-1,-1,-1,-1,-1,-1,-1,-1,-1,-1,-1,-1,-1,-1,-1,-1,-1],"loss_changes":[1.5812813E7,7.21305E6,1.0288413E7,5.114556E6,1.0536131E6,4.1360265E6,7.3704E4,4.804928E6,6.743E3,0E0,2.8929648E3,2.66034E5,3.7358725E6,4.155E2,0E0,0E0,2.6551615E6,0E0,0E0,5.2995703E2,4.4912695E2,1.55473E5,1.911165E5,7.283925E5,7.574971E6,0E0,0E0,9.330015E5,1.9104896E6,2.4948633E2,0E0,1.706289E2,0E0,9.30065E4,0E0,5.1623438E3,0E0,3.048735E5,7.8813086E3,3.514415E5,2.6219125E6,0E0,3.239375E3,0E0,5.666025E4,2.8134082E2,0E0,0E0,0E0,0E0,4.561325E4,0E0,0E0,3.212785E5,0E0,1.2219531E2,3.2050787E2,2.681475E4,1.9566E4,5.0365475E5,1.18783E5,0E0,0E0,0E0,0E0,0E0,0E0,0E0,0E0,0E0,0E0,0E0,0E0,0E0,0E0,0E0,0E0,0E0,0E0,0E0,0E0,0E0,0E0],"parents":[2147483647,0,0,1,1,2,2,3,3,4,4,5,5,6,6,7,7,8,8,10,10,11,11,12,12,13,13,16,16,19,19,20,20,21,21,22,22,23,23,24,24,27,27,28,28,29,29,31,31,33,33,35,35,37,37,38,38,39,39,40,40,42,42,44,44,45,45,50,50,53,53,55,55,56,56,57,57,58,58,59,59,60,60],"right_children":[2,4,6,8,10,12,14,16,18,-1,20,22,24,26,-1,-1,28,-1,-1,30,32,34,36,38,40,-1,-1,42,44,46,-1,48,-1,50,-1,52,-1,54,56,58,60,-1,62,-1,64,66,-1,-1,-1,-1,68,-1,-1,70,-1,72,74,76,78,80,82,-1,-1,-1,-1,-1,-1,-1,-1,-1,-1,-1,-1,-1,-1,-1,-1,-1,-1,-1,-1,-1,-1],"split_conditions":[-8.188548E-1,7.3451877E-1,3.6398919E0,-1.8051518E-2,7.674438E-1,-5.818518E-1,1.3077831E0,-1.4181759E0,5.375593E-1,-1.7500795E1,-1.2534457E-1,8.8903874E-1,-5.2051377E-2,-4.0395442E-1,3.0842554E1,4.813152E1,-1.0379416E0,5.920175E1,4.261985E1,-5.278547E-1,3.720076E0,3.7221453E0,3.4155505E0,3.7221453E0,-8.0276835E-1,1.5724887E1,5.4206745E1,-4.5313123E-1,-7.7062184E-1,2.8732955E0,1.4515265E0,5.044609E0,7.793892E-1,-6.294955E-1,2.2626226E0,-6.154042E-1,-1.6543432E1,-4.2449877E-1,6.043845E-1,-9.352466E-1,1.9572577E0,2.6530243E1,-2.023037E-1,-1.1609656E1,1.0318278E-1,6.152486E0,4.3138885E-1,4.136667E0,1.0493889E0,-1.9193396E1,-5.0251865E-1,-2.3179162E0,-7.6138506E0,3.7866004E0,-1.8532394E1,4.488645E0,-6.9837887E-3,-1.7849561E0,-6.977166E-1,8.900916E0,-2.5322974E-1,1.9418892E0,1.0262632E1,1.580899E1,8.276949E0,2.6965132E0,4.3138885E-1,-1.196714E1,-1.6538692E1,-1.191524E1,2.171457E0,1.3641857E0,3.5287893E0,3.188962E-2,1.0158228E0,1.1406852E1,3.277196E1,1.5349528E1,2.07784E1,-6.483411E0,3.476285E1,1.4463109E1,7.5416512E0],"split_indices":[2,0,67,0,0,4,4,3,4,0,6,3,2,7,0,0,2,0,0,4,13,101,0,101,1,0,0,0,0,30,0,87,0,4,0,0,0,2,4,0,1,0,7,0,4,45,0,0,0,0,0,0,0,44,0,101,7,5,0,41,0,0,0,0,0,0,0,0,0,0,0,0,0,0,0,0,0,0,0,0,0,0,0],"split_type":[0,0,0,0,0,0,0,0,0,0,0,0,0,0,0,0,0,0,0,0,0,0,0,0,0,0,0,0,0,0,0,0,0,0,0,0,0,0,0,0,0,0,0,0,0,0,0,0,0,0,0,0,0,0,0,0,0,0,0,0,0,0,0,0,0,0,0,0,0,0,0,0,0,0,0,0,0,0,0,0,0,0,0],"sum_hessian":[2.036E3,4.71E2,1.565E3,3.7E2,1.01E2,1.532E3,3.3E1,3.26E2,4.4E1,5.1E1,5E1,3.76E2,1.156E3,2.6E1,7E0,4.5E1,2.81E2,2.8E1,1.6E1,3.3E1,1.7E1,2.7E2,1.06E2,3.75E2,7.81E2,1E0,2.5E1,1.64E2,1.17E2,1.9E1,1.4E1,1.6E1,1E0,2.66E2,4E0,7E1,3.6E1,3.39E2,3.6E1,1.28E2,6.53E2,1.11E2,5.3E1,5.6E1,6.1E1,1.8E1,1E0,1.5E1,1E0,1.3E2,1.36E2,3E0,6.7E1,2.68E2,7.1E1,2.2E1,1.4E1,3.5E1,9.3E1,5.45E2,1.08E2,1E0,5.2E1,4.3E1,1.8E1,1.7E1,1E0,5.1E1,8.5E1,2.51E2,1.7E1,2E0,2E1,1E1,4E0,2E0,3.3E1,2.6E1,6.7E1,5.43E2,2E0,4.8E1,6E1],"tree_param":{"num_deleted":"0","num_feature":"111","num_nodes":"83","size_leaf_vector":"1"}},{"base_weights":[9.8231846E-1,-9.420402E1,6.840512E1,5.0537357E1,-1.08065994E2,2.2812282E2,1.8062487E1,2.0993317E2,-8.2227615E1,-1.4982722E2,-7.957567E1,7.1413083E0,2.9480054E2,-1.7921255E0,4.4472803E2,3.6666252E1,1.6152432E2,8.579951E0,-1.2046972E2,-1.636653E2,-1.03541336E2,-9.378249E1,-3.799276E1,9.375224E1,-1.5509397E1,1.4278831E2,3.8221967E2,2.656014E2,-1.4110642E1,5.323515E1,3.442721E1,-4.1891317E0,1.7947325E1,-1.3843709E1,-8.21786E0,-1.6661063E2,-9.627439E0,-7.129886E0,-1.4889056E1,-4.844328E1,-1.1769715E2,-5.2422356E1,1.8903717E1,9.933745E1,5.083727E0,2.3376173E1,-1.0354109E1,2.384276E1,4.6770123E1,-5.4133487E0,2.7598666E2,-3.03559E1,9.184314E1,-1.6723947E2,-6.5586715E0,-7.634365E1,1.3191135E1,-1.3704851E2,-8.170312E1,-6.746879E1,-3.722419E0,3.7556306E-1,1.9399042E1,1.0157958E1,4.006676E0,7.559687E0,2.919131E2,1.0026446E2,-4.6977306E1,1.19153244E2,7.08781E1,-1.675671E1,-4.8237534E0,-4.3456125E0,-1.0814479E1,-4.2530742E-1,2.9941077E0,-1.2004333E1,-1.6010897E1,-7.273071E0,-1.2974138E1,-4.1171584E0,-7.045883E0,2.0256212E0,6.9325054E-1,1.061357E1,3.0695297E1,1.2688838E1,2.9924119E0,-5.5334735E0,1.6252289E1,1.3842399E1,4.7005157E0,8.488663E0,2.442262E0],"categories":[],"categories_nodes":[],"categories_segments":[],"categories_sizes":[],"default_left":[0,0,0,0,0,0,0,0,0,0,0,0,0,0,0,0,0,0,0,0,0,0,0,0,0,0,0,0,0,0,0,0,0,0,0,0,0,0,0,0,0,0,0,0,0,0,0,0,0,0,0,0,0,0,0,0,0,0,0,0,0,0,0,0,0,0,0,0,0,0,0,0,0,0,0,0,0,0,0,0,0,0,0,0,0,0,0,0,0,0,0,0,0,0,0],"id":1,"left_children":[1,3,5,7,9,11,13,15,17,19,21,23,25,27,29,-1,31,-1,33,35,37,39,41,43,-1,45,47,49,51,-1,-1,-1,-1,-1,-1,53,-1,-1,-1,55,57,59,61,63,-1,-1,-1,-1,-1,-1,65,67,69,71,-1,73,75,77,79,81,-1,-1,83,-1,-1,-1,85,87,89,91,93,-1,-1,-1,-1,-1,-1,-1,-1,-1,-1,-1,-1,-1,-1,-1,-1,-1,-1,-1,-1,-1,-1,-1,-1],"loss_changes":[1.2630118E7,1.642685E6,9.258662E6,1.5409394E6,8.74473E5,4.064628E6,7.430108E6,1.9114888E5,2.673647E5,1.758465E5,2.593255E5,9.2787806E5,2.762644E6,2.7673228E6,1.600165E5,0E0,1.0609769E5,0E0,1.1327125E4,2.96115E4,9.466056E4,3.531925E5,9.540517E4,5.2565625E3,0E0,1.7945488E6,1.535558E6,1.377995E5,1.3849488E6,0E0,0E0,0E0,0E0,0E0,0E0,2.944E3,0E0,0E0,0E0,2.0048334E5,1.39254E5,1.8526906E4,1.0722168E2,8.4709375E2,0E0,0E0,0E0,0E0,0E0,0E0,9.2826E4,1.517963E6,5.2818375E4,3.77E2,0E0,7.896931E4,1.093835E4,3.528825E4,2.4183312E4,6.374375E2,0E0,0E0,1.05350586E2,0E0,0E0,0E0,5.962575E4,1.4414912E5,1.0927898E6,5.6058875E4,3.892553E4,0E0,0E0,0E0,0E0,0E0,0E0,0E0,0E0,0E0,0E0,0E0,0E0,0E0,0E0,0E0,0E0,0E0,0E0,0E0,0E0,0E0,0E0,0E0,0E0],"parents":[2147483647,0,0,1,1,2,2,3,3,4,4,5,5,6,6,7,7,8,8,9,9,10,10,11,11,12,12,13,13,14,14,16,16,18,18,19,19,20,20,21,21,22,22,23,23,25,25,26,26,27,27,28,28,35,35,39,39,40,40,41,41,42,42,43,43,50,50,51,51,52,52,53,53,55,55,56,56,57,57,58,58,59,59,62,62,66,66,67,67,68,68,69,69,70,70],"right_children":[2,4,6,8,10,12,14,16,18,20,22,24,26,28,30,-1,32,-1,34,36,38,40,42,44,-1,46,48,50,52,-1,-1,-1,-1,-1,-1,54,-1,-1,-1,56,58,60,62,64,-1,-1,-1,-1,-1,-1,66,68,70,72,-1,74,76,78,80,82,-1,-1,84,-1,-1,-1,86,88,90,92,94,-1,-1,-1,-1,-1,-1,-1,-1,-1,-1,-1,-1,-1,-1,-1,-1,-1,-1,-1,-1,-1,-1,-1,-1],"split_conditions":[-5.059291E-1,-8.2418466E-1,-9.327799E-1,-4.178545E-1,-6.137028E-1,-1.2351196E0,3.6398919E0,-7.235862E-1,-1.3621899E0,7.674438E-1,5.277195E-1,-1.8051518E-2,-7.7062184E-1,-9.352466E-1,6.265463E-1,3.6666252E1,-7.136932E-1,8.579951E0,-3.9904025E-1,3.8939035E0,3.4155505E0,-3.7176526E-1,5.745976E-1,3.4669984E-2,-1.5509397E1,-9.3759835E-1,-1.0598502E0,-9.517091E-1,1.9572577E0,5.323515E1,3.442721E1,-4.1891317E0,1.7947325E1,-1.3843709E1,-8.21786E0,4.708761E0,-9.627439E0,-7.129886E0,-1.4889056E1,-5.805742E-1,1.2477391E-1,1.0740542E0,-2.1612031E0,1.5889109E0,5.083727E0,2.3376173E1,-1.0354109E1,2.384276E1,4.6770123E1,-5.4133487E0,-1.2794375E-1,-8.188548E-1,-2.5322974E-1,3.7507346E0,-6.5586715E0,-8.411753E-1,-8.505824E-1,-5.0251865E-1,1.6349162E0,-5.7892E-1,-3.722419E0,3.7556306E-1,2.5230575E0,1.0157958E1,4.006676E0,7.559687E0,-1.7849561E0,-5.918864E-1,2.8539371E0,6.265463E-1,-1.2157899E-1,-1.675671E1,-4.8237534E0,-4.3456125E0,-1.0814479E1,-4.2530742E-1,2.9941077E0,-1.2004333E1,-1.6010897E1,-7.273071E0,-1.2974138E1,-4.1171584E0,-7.045883E0,2.0256212E0,6.9325054E-1,1.061357E1,3.0695297E1,1.2688838E1,2.9924119E0,-5.5334735E0,1.6252289E1,1.3842399E1,4.7005157E0,8.488663E0,2.442262E0],"split_indices":[4,1,2,0,6,2,67,0,2,0,1,0,0,0,4,0,2,0,0,75,0,1,0,7,0,0,2,0,1,0,0,0,0,0,0,60,0,0,0,1,3,2,5,94,0,0,0,0,0,0,7,2,0,93,0,0,0,0,2,6,0,0,73,0,0,0,5,0,70,4,4,0,0,0,0,0,0,0,0,0,0,0,0,0,0,0,0,0,0,0,0,0,0,0,0],"split_type":[0,0,0,0,0,0,0,0,0,0,0,0,0,0,0,0,0,0,0,0,0,0,0,0,0,0,0,0,0,0,0,0,0,0,0,0,0,0,0,0,0,0,0,0,0,0,0,0,0,0,0,0,0,0,0,0,0,0,0,0,0,0,0,0,0,0,0,0,0,0,0,0,0,0,0,0,0,0,0,0,0,0,0,0,0,0,0,0,0,0,0,0,0,0,0],"sum_hessian":[1.966E3,8.15E2,1.151E3,7.1E1,7.44E2,2.75E2,8.76E2,3.2E1,3.9E1,3E2,4.44E2,6.4E1,2.11E2,8.38E2,3.8E1,6E0,2.6E1,7E0,3.2E1,2.29E2,7.1E1,3.3E2,1.14E2,4.2E1,2.2E1,7.8E1,1.33E2,3.6E1,8.02E2,1.8E1,2E1,2E0,2.4E1,2E1,1.2E1,2.18E2,1.1E1,4.3E1,2.8E1,1.15E2,2.15E2,9.1E1,2.3E1,3.6E1,6E0,5.7E1,2.1E1,5.1E1,8.2E1,1E0,3.5E1,6.96E2,1.06E2,2.16E2,2E0,7.9E1,3.6E1,1.38E2,7.7E1,4.4E1,4.7E1,1E0,2.2E1,3.4E1,2E0,3E0,3.2E1,7.8E1,6.18E2,4.4E1,6.2E1,2.15E2,1E0,4E1,3.9E1,1.8E1,1.8E1,8.3E1,5.5E1,6.7E1,1E1,6E0,3.8E1,2E1,2E0,3E0,2.9E1,5.6E1,2.2E1,5.95E2,2.3E1,3.4E1,1E1,4.7E1,1.5E1],"tree_param":{"num_deleted":"0","num_feature":"111","num_nodes":"95","size_leaf_vector":"1"}},{"base_weights":[-8.261749E-1,1.3449004E2,-4.1891323E1,1.9027461E2,-5.7060047E1,-5.2874268E1,4.0924478E2,1.54221E2,4.3694592E2,-1.4195978E1,2.2794344E1,-1.0689005E2,-2.09416E1,4.575591E2,2.5345093E1,3.950247E1,1.06023926E2,4.879028E1,3.4630692E2,1.858134E1,3.530033E1,-4.876383E1,-1.2904958E2,1.9260944E2,-4.7579372E1,1.3217284E1,4.6499043E1,1.7689726E2,4.1859756E0,1.7385336E1,3.6651325E1,1.9320446E1,6.3601726E-1,3.6935468E0,7.839348E-1,-9.190192E1,2.6452938E1,-1.04059525E2,-1.5464693E1,2.4204129E2,1.6796268E1,-6.811307E1,8.6764984E1,2.1676877E2,8.3779655E1,-9.385249E0,1.13244156E2,5.5075073E-1,1.9887585E1,-1.148516E1,-6.008297E1,3.4209618E1,8.730827E0,-1.3314468E2,-7.283456E1,6.6790767E0,2.5119322E2,-1.2264725E2,-4.9348454E1,1.2002039E2,6.2992725E1,2.0019327E1,2.4793188E1,1.3368965E0,8.496802E0,1.3066217E1,6.4798636E0,2.0221894E0,3.591919E-1,-4.424283E0,-7.0351763E0,3.6308982E0,2.294414E0,-1.610363E-1,1.0770448E0,-1.4421028E1,-1.1866743E1,-6.480111E0,-9.946675E0,2.613217E1,6.9553704E0,-7.280352E0,-1.4659572E1,-5.254135E0,2.058353E1,1.3510123E1,4.3010154E0,7.653324E0,2.4044378E0],"categories":[],"categories_nodes":[],"categories_segments":[],"categories_sizes":[],"default_left":[0,0,0,0,0,0,0,0,0,0,0,0,0,0,0,0,0,0,0,0,0,0,0,0,0,0,0,0,0,0,0,0,0,0,0,0,0,0,0,0,0,0,0,0,0,0,0,0,0,0,0,0,0,0,0,0,0,0,0,0,0,0,0,0,0,0,0,0,0,0,0,0,0,0,0,0,0,0,0,0,0,0,0,0,0,0,0,0,0],"id":2,"left_children":[1,3,5,7,9,11,13,15,17,-1,19,21,23,25,-1,-1,27,-1,29,31,33,35,37,39,41,-1,-1,43,45,-1,-1,47,-1,-1,-1,49,51,53,-1,55,-1,57,59,61,63,-1,65,-1,67,-1,69,71,73,75,77,-1,79,81,83,85,87,-1,-1,-1,-1,-1,-1,-1,-1,-1,-1,-1,-1,-1,-1,-1,-1,-1,-1,-1,-1,-1,-1,-1,-1,-1,-1,-1,-1],"loss_changes":[1.1241443E7,5.043746E6,7.711492E6,3.178703E6,7.2865475E5,2.612662E6,1.62533E5,3.672047E6,4.3494E4,0E0,2.2945898E3,7.18879E5,5.436016E6,3.8285E3,0E0,0E0,1.9335752E6,0E0,5.9735E3,2.7455957E2,2.9418262E2,5.1185012E5,2.44257E5,8.84895E4,2.3479495E6,0E0,0E0,5.68452E5,1.1974288E6,0E0,0E0,2.1165625E2,0E0,0E0,0E0,6.612281E4,7.6742773E3,1.8011275E5,0E0,3.6150875E4,0E0,7.48129E5,8.1772375E4,7.1855E3,2.9640938E3,0E0,3.6255938E4,0E0,1.398291E2,0E0,4.0444375E3,1.129375E2,4.1809436E2,2.8375E1,1.5591125E4,0E0,3.88555E4,2.1373925E5,4.5894175E5,4.7612688E4,3.4021688E4,0E0,0E0,0E0,0E0,0E0,0E0,0E0,0E0,0E0,0E0,0E0,0E0,0E0,0E0,0E0,0E0,0E0,0E0,0E0,0E0,0E0,0E0,0E0,0E0,0E0,0E0,0E0,0E0],"parents":[2147483647,0,0,1,1,2,2,3,3,4,4,5,5,6,6,7,7,8,8,10,10,11,11,12,12,13,13,16,16,18,18,19,19,20,20,21,21,22,22,23,23,24,24,27,27,28,28,31,31,35,35,36,36,37,37,39,39,41,41,42,42,43,43,44,44,46,46,48,48,50,50,51,51,52,52,53,53,54,54,56,56,57,57,58,58,59,59,60,60],"right_children":[2,4,6,8,10,12,14,16,18,-1,20,22,24,26,-1,-1,28,-1,30,32,34,36,38,40,42,-1,-1,44,46,-1,-1,48,-1,-1,-1,50,52,54,-1,56,-1,58,60,62,64,-1,66,-1,68,-1,70,72,74,76,78,-1,80,82,84,86,88,-1,-1,-1,-1,-1,-1,-1,-1,-1,-1,-1,-1,-1,-1,-1,-1,-1,-1,-1,-1,-1,-1,-1,-1,-1,-1,-1,-1],"split_conditions":[-8.188548E-1,7.3451877E-1,3.6398919E0,-1.8051518E-2,7.674438E-1,-5.2051377E-2,1.3077831E0,-1.4181759E0,5.375593E-1,-1.4195978E1,4.2321876E-1,-5.236847E-1,-8.0276835E-1,-4.0395442E-1,2.5345093E1,3.950247E1,-1.0379416E0,4.879028E1,1.8973196E0,1.6459134E0,4.5305915E0,-5.3309184E-1,-4.2449877E-1,-9.352466E-1,1.9572577E0,1.3217284E1,4.6499043E1,-4.5313123E-1,-7.7062184E-1,1.7385336E1,3.6651325E1,-2.4532858E-1,6.3601726E-1,3.6935468E0,7.839348E-1,-9.517091E-1,6.043845E-1,-1.803245E-1,-1.5464693E1,-1.8847245E-1,1.6796268E1,-5.9086305E-1,-2.5322974E-1,1.3077831E0,-2.023037E-1,-9.385249E0,-2.690649E-1,5.5075073E-1,8.695709E0,-1.148516E1,-3.8982454E-1,9.2151487E-1,-1.1186267E0,-3.9904025E-1,-3.9276895E-1,6.6790767E0,4.3302765E0,1.3687198E-1,6.296666E0,6.2239754E-1,-1.2534457E-1,2.0019327E1,2.4793188E1,1.3368965E0,8.496802E0,1.3066217E1,6.4798636E0,2.0221894E0,3.591919E-1,-4.424283E0,-7.0351763E0,3.6308982E0,2.294414E0,-1.610363E-1,1.0770448E0,-1.4421028E1,-1.1866743E1,-6.480111E0,-9.946675E0,2.613217E1,6.9553704E0,-7.280352E0,-1.4659572E1,-5.254135E0,2.058353E1,1.3510123E1,4.3010154E0,7.653324E0,2.4044378E0],"split_indices":[2,0,67,0,0,2,4,3,4,0,6,0,1,7,0,0,2,0,6,58,76,0,2,0,1,0,0,0,0,0,0,7,0,0,0,0,4,0,0,7,0,6,0,4,7,0,4,0,77,0,4,78,107,0,6,0,29,1,56,6,6,0,0,0,0,0,0,0,0,0,0,0,0,0,0,0,0,0,0,0,0,0,0,0,0,0,0,0,0],"split_type":[0,0,0,0,0,0,0,0,0,0,0,0,0,0,0,0,0,0,0,0,0,0,0,0,0,0,0,0,0,0,0,0,0,0,0,0,0,0,0,0,0,0,0,0,0,0,0,0,0,0,0,0,0,0,0,0,0,0,0,0,0,0,0,0,0,0,0,0,0,0,0,0,0,0,0,0,0,0,0,0,0,0,0,0,0,0,0,0,0],"sum_hessian":[2.021E3,4.7E2,1.551E3,3.64E2,1.06E2,1.515E3,3.6E1,3.19E2,4.5E1,5.1E1,5.5E1,5.62E2,9.53E2,2.6E1,1E1,5.2E1,2.67E2,2.6E1,1.9E1,4.3E1,1.2E1,1.56E2,4.06E2,1.05E2,8.48E2,1E0,2.5E1,1.57E2,1.1E2,3E0,1.6E1,4E1,3E0,1.1E1,1E0,9.9E1,5.7E1,2.08E2,1.98E2,3.2E1,7.3E1,7.36E2,1.12E2,1.09E2,4.8E1,5.8E1,5.2E1,2E0,3.8E1,5.6E1,4.3E1,3.9E1,1.8E1,1.06E2,1.02E2,2E0,3E1,1.87E2,5.49E2,4.5E1,6.7E1,7.6E1,3.3E1,1E0,4.7E1,3.7E1,1.5E1,3.7E1,1E0,1.9E1,2.4E1,3.1E1,8E0,3E0,1.5E1,5.5E1,5.1E1,8.1E1,2.1E1,2.8E1,2E0,6.2E1,1.25E2,5.43E2,6E0,3.7E1,8E0,4.9E1,1.8E1],"tree_param":{"num_deleted":"0","num_feature":"111","num_nodes":"89","size_leaf_vector":"1"}},{"base_weights":[-4.1117248E-1,1.163928E2,-3.6502876E1,1.6419005E2,-5.5233814E1,-4.6341778E1,3.74192E2,1.3195946E2,3.9475027E2,-1.2801346E1,2.0007622E1,-9.7310165E1,-1.592833E1,4.160832E1,2.2366665E1,3.514974E1,9.199954E1,4.425389E1,3.1288755E1,1.6460571E1,3.5125687E0,-4.437056E1,-1.1746144E2,1.7434E2,-4.398509E1,1.5319194E2,1.1335095E1,4.9366242E-1,1.7489552E1,-8.362095E1,2.3390804E1,-9.5131226E1,-1.3857108E1,2.2236763E2,1.522082E2,-6.1539692E1,8.0188896E1,1.9386465E1,7.349825E1,-8.498528E0,1.0436553E2,1.8271605E1,5.8831596E-1,-1.0321244E1,-5.4575066E1,2.942211E1,9.462225E0,-1.206088E1,-6.683433E1,2.7318442E2,1.6805498E2,1.6291903E1,1.2420297E1,-1.0917933E2,-4.4830868E1,1.1355572E2,5.3946026E1,8.101685E0,5.0108147E0,1.2189419E1,5.827994E0,1.9191763E0,8.544238E-1,-4.037748E0,-6.454797E0,1.3054234E0,3.0396419E0,-5.1798757E-2,1.3063586E0,-5.91709E0,-9.337999E0,6.048761E0,2.826975E1,8.440099E0,1.9787804E1,-6.5699844E0,-1.30915165E1,-4.6221004E0,3.4805443E1,1.318915E1,3.802491E0,6.8960543E0,2.1219695E0],"categories":[],"categories_nodes":[],"categories_segments":[],"categories_sizes":[],"default_left":[0,0,0,0,0,0,0,0,0,0,0,0,0,0,0,0,0,0,0,0,0,0,0,0,0,0,0,0,0,0,0,0,0,0,0,0,0,0,0,0,0,0,0,0,0,0,0,0,0,0,0,0,0,0,0,0,0,0,0,0,0,0,0,0,0,0,0,0,0,0,0,0,0,0,0,0,0,0,0,0,0,0,0],"id":3,"left_children":[1,3,5,7,9,11,13,15,17,-1,19,21,23,-1,-1,-1,25,-1,-1,27,-1,29,31,33,35,37,39,-1,41,43,45,47,-1,49,51,53,55,-1,57,-1,59,61,-1,-1,63,65,67,-1,69,71,73,-1,-1,75,77,79,81,-1,-1,-1,-1,-1,-1,-1,-1,-1,-1,-1,-1,-1,-1,-1,-1,-1,-1,-1,-1,-1,-1,-1,-1,-1,-1],"loss_changes":[8.465067E6,3.8974235E6,6.2159065E6,2.704844E6,5.720699E5,2.3220865E6,1.339405E5,2.8363405E6,3.758E4,0E0,2.210287E3,5.921965E5,5.025682E6,0E0,0E0,0E0,1.3704858E6,0E0,0E0,4.3540918E2,0E0,4.1686288E5,1.77727E5,9.4769E4,1.7923915E6,4.978855E5,1.0931174E6,0E0,2.5557812E2,5.0703312E4,4.594035E3,1.361265E5,0E0,5.3449875E4,5.561375E3,5.6743075E5,8.31895E4,0E0,5.6127188E3,0E0,4.2980812E4,1.6719824E2,0E0,0E0,3.340539E3,2.4109375E2,6.8967126E2,0E0,1.4207375E4,1.7298125E4,3.319525E4,0E0,0E0,1.671805E5,3.0773775E5,5.5921125E4,2.7527516E4,0E0,0E0,0E0,0E0,0E0,0E0,0E0,0E0,0E0,0E0,0E0,0E0,0E0,0E0,0E0,0E0,0E0,0E0,0E0,0E0,0E0,0E0,0E0,0E0,0E0,0E0],"parents":[2147483647,0,0,1,1,2,2,3,3,4,4,5,5,6,6,7,7,8,8,10,10,11,11,12,12,16,16,19,19,21,21,22,22,23,23,24,24,25,25,26,26,28,28,29,29,30,30,31,31,33,33,34,34,35,35,36,36,38,38,40,40,41,41,44,44,45,45,46,46,48,48,49,49,50,50,53,53,54,54,55,55,56,56],"right_children":[2,4,6,8,10,12,14,16,18,-1,20,22,24,-1,-1,-1,26,-1,-1,28,-1,30,32,34,36,38,40,-1,42,44,46,48,-1,50,52,54,56,-1,58,-1,60,62,-1,-1,64,66,68,-1,70,72,74,-1,-1,76,78,80,82,-1,-1,-1,-1,-1,-1,-1,-1,-1,-1,-1,-1,-1,-1,-1,-1,-1,-1,-1,-1,-1,-1,-1,-1,-1,-1],"split_conditions":[-8.188548E-1,7.3451877E-1,3.6398919E0,-1.8051518E-2,7.674438E-1,-5.2051377E-2,1.3077831E0,-1.4181759E0,5.375593E-1,-1.2801346E1,5.1676524E-1,-5.236847E-1,-8.0276835E-1,4.160832E1,2.2366665E1,3.514974E1,-1.0379416E0,4.425389E1,3.1288755E1,-1.2520525E-1,3.5125687E0,-5.3309184E-1,-4.2449877E-1,-9.352466E-1,1.9572577E0,-4.5313123E-1,-7.7062184E-1,4.9366242E-1,1.6459134E0,-9.517091E-1,6.043845E-1,-1.803245E-1,-1.3857108E1,1.036691E0,5.8422613E-1,-5.9086305E-1,-2.5322974E-1,1.9386465E1,1.5031199E-2,-8.498528E0,-2.690649E-1,2.369029E0,5.8831596E-1,-1.0321244E1,-3.8982454E-1,-5.955525E-1,-1.6903923E-1,-1.206088E1,-3.9276895E-1,-1.7849561E0,-8.7217055E-2,1.6291903E1,1.2420297E1,1.3687198E-1,2.8815634E0,6.265463E-1,-1.4523642E-1,8.101685E0,5.0108147E0,1.2189419E1,5.827994E0,1.9191763E0,8.544238E-1,-4.037748E0,-6.454797E0,1.3054234E0,3.0396419E0,-5.1798757E-2,1.3063586E0,-5.91709E0,-9.337999E0,6.048761E0,2.826975E1,8.440099E0,1.9787804E1,-6.5699844E0,-1.30915165E1,-4.6221004E0,3.4805443E1,1.318915E1,3.802491E0,6.8960543E0,2.1219695E0],"split_indices":[2,0,67,0,0,2,4,3,4,0,6,0,1,0,0,0,2,0,0,7,0,0,2,0,1,0,0,0,58,0,4,0,0,4,4,6,0,0,4,0,4,104,0,0,4,4,5,0,6,5,7,0,0,1,100,4,6,0,0,0,0,0,0,0,0,0,0,0,0,0,0,0,0,0,0,0,0,0,0,0,0,0,0],"split_type":[0,0,0,0,0,0,0,0,0,0,0,0,0,0,0,0,0,0,0,0,0,0,0,0,0,0,0,0,0,0,0,0,0,0,0,0,0,0,0,0,0,0,0,0,0,0,0,0,0,0,0,0,0,0,0,0,0,0,0,0,0,0,0,0,0,0,0,0,0,0,0,0,0,0,0,0,0,0,0,0,0,0,0],"sum_hessian":[2.006E3,4.73E2,1.533E3,3.7E2,1.03E2,1.498E3,3.5E1,3.26E2,4.4E1,5.2E1,5.1E1,5.59E2,9.39E2,2.6E1,9E0,4.9E1,2.77E2,2.5E1,1.9E1,4.3E1,8E0,1.55E2,4.04E2,1.2E2,8.19E2,1.57E2,1.2E2,4E0,3.9E1,9.8E1,5.7E1,1.99E2,2.05E2,3.5E1,8.5E1,7.18E2,1.01E2,1.03E2,5.4E1,5.9E1,6.1E1,3.6E1,3E0,5.7E1,4.1E1,3.9E1,1.8E1,1.03E2,9.6E1,1.6E1,1.9E1,5.8E1,2.7E1,1.85E2,5.33E2,4.3E1,5.8E1,3.9E1,1.5E1,4.3E1,1.8E1,3.2E1,4E0,1.9E1,2.2E1,3E0,3.6E1,5E0,1.3E1,7.7E1,1.9E1,1E0,1.5E1,6E0,1.3E1,6.3E1,1.22E2,5.32E2,1E0,3.4E1,9E0,3.9E1,1.9E1],"tree_param":{"num_deleted":"0","num_feature":"111","num_nodes":"83","size_leaf_vector":"1"}},{"base_weights":[-1.4989609E0,1.0792451E2,-3.369795E1,1.5208266E2,-5.329469E1,-4.183883E1,3.205791E2,1.23107704E2,3.6215192E2,-1.1549487E1,1.7979864E1,-8.612004E1,-1.5076494E1,3.5637704E2,2.100766E1,3.2089672E1,8.5747406E1,3.9838497E1,2.7610962E2,1.2696569E1,2.742271E1,-3.828128E1,-1.0509177E2,1.5815422E2,-4.0854095E1,3.6459872E2,7.9528246E0,1.3991885E2,1.1341078E1,1.3734778E1,2.9756636E1,1.4989907E1,6.9556623E0,2.8725918E1,3.9373094E-1,-7.363189E1,2.2616161E1,-8.364301E1,-1.2424535E1,2.0460762E2,1.3810901E2,-5.6287796E1,6.4509575E1,1.0476005E1,3.713413E1,1.735968E2,6.783842E1,-7.562492E0,9.087089E1,2.758255E-1,1.607516E1,7.285286E-1,1.829712E-1,2.984887E0,6.502304E-1,-9.396227E0,-4.69767E1,2.6426458E1,2.8942192E0,-1.070111E1,-6.013954E1,7.198672E0,2.2431154E2,1.4021378E2,7.470614E0,-4.9324127E1,-1.528966E1,5.5950417E1,1.0915797E2,1.5912674E1,2.044677E1,4.6453977E0,7.393168E0,1.0547687E1,5.3801303E0,1.6803883E0,1.11470796E-1,-3.5169227E0,-5.6826806E0,1.9706726E-2,2.6947105E0,-3.7500885E-1,7.226693E-1,-5.2759314E0,-8.390766E0,2.3438658E1,5.550748E0,1.4094733E1,3.9297593E0,-7.486913E0,-1.3765942E0,4.7118936E0,8.314493E0,1.2453376E1,3.1897144E0],"categories":[],"categories_nodes":[],"categories_segments":[],"categories_sizes":[],"default_left":[0,0,0,0,0,0,0,0,0,0,0,0,0,0,0,0,0,0,0,0,0,0,0,0,0,0,0,0,0,0,0,0,0,0,0,0,0,0,0,0,0,0,0,0,0,0,0,0,0,0,0,0,0,0,0,0,0,0,0,0,0,0,0,0,0,0,0,0,0,0,0,0,0,0,0,0,0,0,0,0,0,0,0,0,0,0,0,0,0,0,0,0,0,0,0],"id":4,"left_children":[1,3,5,7,9,11,13,15,17,-1,19,21,23,25,-1,-1,27,-1,29,31,33,35,37,39,41,43,-1,45,47,-1,-1,49,51,53,-1,55,57,59,-1,61,63,65,67,-1,-1,69,71,-1,73,-1,75,-1,-1,-1,-1,-1,77,79,81,-1,83,-1,85,87,-1,89,-1,91,93,-1,-1,-1,-1,-1,-1,-1,-1,-1,-1,-1,-1,-1,-1,-1,-1,-1,-1,-1,-1,-1,-1,-1,-1,-1,-1],"loss_changes":[7.081996E6,3.2615535E6,4.4924625E6,2.1405585E6,4.409722E5,1.798821E6,6.3585E4,2.3149415E6,2.40575E4,0E0,1.996625E3,5.15115E5,4.2397295E6,2.790825E4,0E0,0E0,1.0786405E6,0E0,6.767875E3,3.17042E2,3.7659766E2,3.5471812E5,1.57633E5,8.62755E4,1.3468319E6,3.14575E3,0E0,3.64489E5,7.953404E5,0E0,0E0,2.4769775E2,5.2559814E0,1.802539E2,0E0,5.1944625E4,4.507451E3,1.0121375E5,0E0,7.531275E4,1.402E3,4.7751225E5,3.440075E4,0E0,0E0,1.43675E4,3.2109219E3,0E0,2.68115E4,0E0,1.9930957E2,0E0,0E0,0E0,0E0,0E0,3.4677734E3,6.9115625E2,3.4374997E2,0E0,1.31145E4,0E0,3.8011E4,7.535E2,0E0,6.1118625E5,0E0,1.7937594E4,1.5034875E4,0E0,0E0,0E0,0E0,0E0,0E0,0E0,0E0,0E0,0E0,0E0,0E0,0E0,0E0,0E0,0E0,0E0,0E0,0E0,0E0,0E0,0E0,0E0,0E0,0E0,0E0],"parents":[2147483647,0,0,1,1,2,2,3,3,4,4,5,5,6,6,7,7,8,8,10,10,11,11,12,12,13,13,16,16,18,18,19,19,20,20,21,21,22,22,23,23,24,24,25,25,27,27,28,28,31,31,32,32,33,33,35,35,36,36,37,37,39,39,40,40,41,41,42,42,45,45,46,46,48,48,50,50,56,56,57,57,58,58,60,60,62,62,63,63,65,65,67,67,68,68],"right_children":[2,4,6,8,10,12,14,16,18,-1,20,22,24,26,-1,-1,28,-1,30,32,34,36,38,40,42,44,-1,46,48,-1,-1,50,52,54,-1,56,58,60,-1,62,64,66,68,-1,-1,70,72,-1,74,-1,76,-1,-1,-1,-1,-1,78,80,82,-1,84,-1,86,88,-1,90,-1,92,94,-1,-1,-1,-1,-1,-1,-1,-1,-1,-1,-1,-1,-1,-1,-1,-1,-1,-1,-1,-1,-1,-1,-1,-1,-1,-1],"split_conditions":[-8.188548E-1,7.3451877E-1,3.6398919E0,-1.8051518E-2,7.674438E-1,-5.2051377E-2,1.3077831E0,-1.4181759E0,5.375593E-1,-1.1549487E1,-1.2534457E-1,-5.236847E-1,-8.0276835E-1,8.18815E0,2.100766E1,3.2089672E1,-1.0379416E0,3.9838497E1,1.8973196E0,-5.278547E-1,4.6377137E-2,-5.3309184E-1,-4.2449877E-1,-9.352466E-1,1.9572577E0,-4.0395442E-1,7.9528246E0,-4.5313123E-1,-7.7062184E-1,1.3734778E1,2.9756636E1,-1.2520525E-1,-4.9817616E-1,3.820052E0,3.9373094E-1,-9.517091E-1,1.5000314E0,-1.803245E-1,-1.2424535E1,-1.2226669E-1,7.935698E0,2.9232013E0,6.155508E0,1.0476005E1,3.713413E1,1.3077831E0,-3.9473408E-1,-7.562492E0,1.0318278E-1,2.758255E-1,2.8732955E0,7.285286E-1,1.829712E-1,2.984887E0,6.502304E-1,-9.396227E0,-3.850555E-1,-1.2992027E0,-4.1011523E-2,-1.070111E1,-3.9276895E-1,7.198672E0,4.3302765E0,4.3985786E0,7.470614E0,4.92918E-1,-1.528966E1,2.5665772E-1,7.569124E-1,1.5912674E1,2.044677E1,4.6453977E0,7.393168E0,1.0547687E1,5.3801303E0,1.6803883E0,1.11470796E-1,-3.5169227E0,-5.6826806E0,1.9706726E-2,2.6947105E0,-3.7500885E-1,7.226693E-1,-5.2759314E0,-8.390766E0,2.3438658E1,5.550748E0,1.4094733E1,3.9297593E0,-7.486913E0,-1.3765942E0,4.7118936E0,8.314493E0,1.2453376E1,3.1897144E0],"split_indices":[2,0,67,0,0,2,4,3,4,0,6,0,1,35,0,0,2,0,6,4,7,0,2,0,1,7,0,0,0,0,0,7,4,32,0,0,4,0,0,7,65,40,83,0,0,4,5,0,4,0,30,0,0,0,0,0,6,5,7,0,6,0,29,27,0,1,0,6,94,0,0,0,0,0,0,0,0,0,0,0,0,0,0,0,0,0,0,0,0,0,0,0,0,0,0],"split_type":[0,0,0,0,0,0,0,0,0,0,0,0,0,0,0,0,0,0,0,0,0,0,0,0,0,0,0,0,0,0,0,0,0,0,0,0,0,0,0,0,0,0,0,0,0,0,0,0,0,0,0,0,0,0,0,0,0,0,0,0,0,0,0,0,0,0,0,0,0,0,0,0,0,0,0,0,0,0,0,0,0,0,0,0,0,0,0,0,0,0,0,0,0,0,0],"sum_hessian":[2.008E3,4.56E2,1.552E3,3.58E2,9.8E1,1.518E3,3.4E1,3.16E2,4.2E1,5.2E1,4.6E1,5.71E2,9.47E2,2.4E1,1E1,4.9E1,2.67E2,2.7E1,1.5E1,3.1E1,1.5E1,1.63E2,4.08E2,1.22E2,8.25E2,2.3E1,1E0,1.54E2,1.13E2,3E0,1.2E1,2.1E1,1E1,1.4E1,1E0,1.03E2,6E1,1.95E2,2.13E2,3.4E1,8.8E1,7.2E2,1.05E2,1E0,2.2E1,1.04E2,5E1,5.4E1,5.9E1,2E0,1.9E1,9E0,1E0,1.3E1,1E0,5.7E1,4.6E1,5E1,1E1,9.6E1,9.9E1,5E0,2.9E1,8.4E1,4E0,6.73E2,4.7E1,9E1,1.5E1,7.5E1,2.9E1,1.3E1,3.7E1,4.1E1,1.8E1,1.8E1,1E0,2.3E1,2.3E1,1E0,4.9E1,4E0,6E0,7.8E1,2.1E1,2.7E1,2E0,8.3E1,1E0,3.91E2,2.82E2,7E1,2E1,1.2E1,3E0],"tree_param":{"num_deleted":"0","num_feature":"111","num_nodes":"95","size_leaf_vector":"1"}},{"base_weights":[1.247473E0,-4.58921E1,5.9881836E1,-9.103502E1,-2.193013E1,1.06443436E2,-3.0995123E1,-1.0011759E2,-6.3229095E1,1.1038501E2,-2.9749218E1,5.83197E1,3.586058E2,-6.774271E1,6.649247E1,-1.0821518E2,-6.859393E1,-4.0651787E1,-9.49499E0,2.4732288E1,7.4917725E1,-3.3010765E1,1.0991053E2,1.0880464E2,-4.7684708E1,4.1326004E2,2.5310535E2,-1.0749614E2,-4.0833755E1,9.772945E1,3.7248653E1,-1.1052917E2,-6.783375E0,-4.7022644E1,-8.864837E1,-4.428647E0,7.460086E0,1.1203067E1,5.707584E0,1.1853064E2,-3.592798E1,1.1957523E1,-1.7530044E0,2.8284058E1,8.5893654E1,9.537777E1,-6.850603E1,9.952204E0,4.1683033E1,2.5696365E2,6.0961185E0,-1.2060751E1,-5.6231575E0,-5.1806026E0,-1.0460439E2,1.18132576E2,2.47068E0,5.179894E1,1.0236483E1,-1.10787605E2,-2.7611122E0,-7.628103E0,-2.5653564E1,-9.120453E0,-5.981766E-1,8.239102E-1,2.1720123E-1,1.3737434E1,-5.379686E0,-3.9011173E1,1.000724E1,-1.2012325E2,1.0256927E2,9.735213E0,2.794522E0,-2.1077263E1,-8.88935E1,2.6017154E2,7.5551834E0,-2.179839E1,2.2672697E1,-1.6643972E1,-5.8352287E1,1.35818E2,-9.9519044E-1,3.6630543E1,6.765E1,2.2491124E0,-6.3613777E0,-1.1102942E1,-2.9640548E0,7.013733E-2,-4.728046E0,-4.229065E0,5.2228923E0,-4.258537E0,-1.2962466E1,1.7336683E1,7.4233065E0,-2.4510772E0,1.0606257E0,-1.0027834E1,-7.712028E0,2.635507E1,7.60193E0,2.3958667E-1,-3.8000495E0,-2.5117722E-1,2.725963E0,-7.8371253E0,-3.961118E0,1.411941E1,-1.9801788E-1,1.121164E0,-6.849808E-1,4.0610456E0,4.520803E-1,7.1550074E0,1.0424576E0,-1.6271546E0,7.6166767E-1],"categories":[],"categories_nodes":[],"categories_segments":[],"categories_sizes":[],"default_left":[0,0,0,0,0,0,0,0,0,0,0,0,0,0,0,0,0,0,0,0,0,0,0,0,0,0,0,0,0,0,0,0,0,0,0,0,0,0,0,0,0,0,0,0,0,0,0,0,0,0,0,0,0,0,0,0,0,0,0,0,0,0,0,0,0,0,0,0,0,0,0,0,0,0,0,0,0,0,0,0,0,0,0,0,0,0,0,0,0,0,0,0,0,0,0,0,0,0,0,0,0,0,0,0,0,0,0,0,0,0,0,0,0,0,0,0,0,0,0,0,0],"id":5,"left_children":[1,3,5,7,9,11,13,15,17,19,21,23,25,27,29,31,33,35,-1,-1,37,39,41,43,45,47,49,51,53,55,57,59,-1,61,63,-1,65,-1,-1,67,69,-1,-1,-1,71,73,75,-1,-1,77,-1,-1,-1,79,81,83,-1,85,87,89,-1,-1,91,-1,-1,-1,-1,-1,-1,93,-1,95,97,-1,-1,99,101,103,-1,105,107,-1,109,111,113,115,117,-1,119,-1,-1,-1,-1,-1,-1,-1,-1,-1,-1,-1,-1,-1,-1,-1,-1,-1,-1,-1,-1,-1,-1,-1,-1,-1,-1,-1,-1,-1,-1,-1,-1],"loss_changes":[5.569442E6,1.2062775E6,3.8030755E6,9.140625E4,7.5956475E5,7.1872735E6,1.0971462E6,6.660425E4,6.632481E4,1.8060056E5,3.1838356E5,2.6810015E6,4.43176E5,2.3308919E5,7.309278E4,1.39005E4,2.2652719E4,1.0647797E4,0E0,0E0,1.6119359E4,3.0310344E5,2.1802969E4,1.327412E6,4.890914E5,2.6844E4,1.02825E4,5.3039188E4,3.0412375E5,5.6676906E4,1.7156316E4,1.5485E3,0E0,1.8050312E4,6.0050156E3,0E0,2.7019958E0,0E0,0E0,4.960503E4,2.823297E5,0E0,0E0,0E0,1.0463935E6,7.534375E1,1.3543369E5,0E0,0E0,1.3E2,0E0,0E0,0E0,4.0763066E4,1.275685E5,6.544672E4,0E0,4.4945703E3,3.600888E3,9.0825E2,0E0,0E0,1.143267E4,0E0,0E0,0E0,0E0,0E0,0E0,1.9670156E5,0E0,1.14244375E4,5.4684175E5,0E0,0E0,5.046533E3,5.5360625E3,5E2,0E0,2.1650928E4,3.8806113E3,0E0,7.7757734E3,2.0281594E4,4.3412915E2,1.9889023E3,2.155504E3,0E0,1.232134E3,0E0,0E0,0E0,0E0,0E0,0E0,0E0,0E0,0E0,0E0,0E0,0E0,0E0,0E0,0E0,0E0,0E0,0E0,0E0,0E0,0E0,0E0,0E0,0E0,0E0,0E0,0E0,0E0,0E0,0E0,0E0,0E0],"parents":[2147483647,0,0,1,1,2,2,3,3,4,4,5,5,6,6,7,7,8,8,9,9,10,10,11,11,12,12,13,13,14,14,15,15,16,16,17,17,20,20,21,21,22,22,23,23,24,24,25,25,26,26,27,27,28,28,29,29,30,30,31,31,33,33,34,34,36,36,39,39,40,40,44,44,45,45,46,46,49,49,53,53,54,54,55,55,57,57,58,58,59,59,62,62,69,69,71,71,72,72,75,75,76,76,77,77,79,79,80,80,82,82,83,83,84,84,85,85,86,86,88,88],"right_children":[2,4,6,8,10,12,14,16,18,20,22,24,26,28,30,32,34,36,-1,-1,38,40,42,44,46,48,50,52,54,56,58,60,-1,62,64,-1,66,-1,-1,68,70,-1,-1,-1,72,74,76,-1,-1,78,-1,-1,-1,80,82,84,-1,86,88,90,-1,-1,92,-1,-1,-1,-1,-1,-1,94,-1,96,98,-1,-1,100,102,104,-1,106,108,-1,110,112,114,116,118,-1,120,-1,-1,-1,-1,-1,-1,-1,-1,-1,-1,-1,-1,-1,-1,-1,-1,-1,-1,-1,-1,-1,-1,-1,-1,-1,-1,-1,-1,-1,-1,-1,-1],"split_conditions":[-3.9253715E-1,-5.9086305E-1,3.1223512E-1,7.674438E-1,-1.273975E0,2.2253719E-1,1.8207289E0,-6.137028E-1,3.4155505E0,-7.235862E-1,4.72894E0,-7.548517E-1,8.194985E-1,5.8126026E-1,-2.5322974E-1,3.8939035E0,-3.9433667E-1,5.277195E-1,-9.49499E0,2.4732288E1,-4.5313123E-1,-1.0379416E0,-4.178545E-1,-1.4181759E0,-1.4559656E0,-4.0395442E-1,4.5502033E0,1.6821438E0,1.2585509E0,6.2239754E-1,-1.2157899E-1,-5.955525E-1,-6.783375E0,-8.7021244E-1,-1.803245E-1,-4.428647E0,-5.894551E-1,1.1203067E1,5.707584E0,-9.3759835E-1,3.482803E0,1.1957523E1,-1.7530044E0,2.8284058E1,-1.2926663E0,5.122086E0,-8.411753E-1,9.952204E0,4.1683033E1,5.70249E0,6.0961185E0,-1.2060751E1,-5.6231575E0,-1.4523642E-1,1.3388621E0,1.3663089E0,2.47068E0,-2.059428E-1,1.5230107E-1,5.2724767E0,-2.7611122E0,-7.628103E0,-5.236847E-1,-9.120453E0,-5.981766E-1,8.239102E-1,2.1720123E-1,1.3737434E1,-5.379686E0,1.9572577E0,1.000724E1,-3.5785872E-1,-9.352466E-1,9.735213E0,2.794522E0,2.0720081E0,6.964915E-1,5.4695444E0,7.5551834E0,-2.3401597E-1,-1.8847245E-1,-1.6643972E1,-1.09934695E-1,9.606457E0,-9.408897E-2,1.6326215E0,-1.2534457E-1,2.2491124E0,5.6445175E-1,-1.1102942E1,-2.9640548E0,7.013733E-2,-4.728046E0,-4.229065E0,5.2228923E0,-4.258537E0,-1.2962466E1,1.7336683E1,7.4233065E0,-2.4510772E0,1.0606257E0,-1.0027834E1,-7.712028E0,2.635507E1,7.60193E0,2.3958667E-1,-3.8000495E0,-2.5117722E-1,2.725963E0,-7.8371253E0,-3.961118E0,1.411941E1,-1.9801788E-1,1.121164E0,-6.849808E-1,4.0610456E0,4.520803E-1,7.1550074E0,1.0424576E0,-1.6271546E0,7.6166767E-1],"split_indices":[4,6,3,0,3,1,1,6,0,0,70,3,4,1,0,75,0,1,0,0,0,2,0,3,1,7,30,3,1,6,4,4,0,3,0,0,4,0,0,0,14,0,0,0,1,54,0,0,0,35,0,0,0,6,1,110,0,6,6,102,0,0,0,0,0,0,0,0,0,1,0,4,0,0,0,49,6,12,0,6,7,0,6,83,4,93,6,0,49,0,0,0,0,0,0,0,0,0,0,0,0,0,0,0,0,0,0,0,0,0,0,0,0,0,0,0,0,0,0,0,0],"split_type":[0,0,0,0,0,0,0,0,0,0,0,0,0,0,0,0,0,0,0,0,0,0,0,0,0,0,0,0,0,0,0,0,0,0,0,0,0,0,0,0,0,0,0,0,0,0,0,0,0,0,0,0,0,0,0,0,0,0,0,0,0,0,0,0,0,0,0,0,0,0,0,0,0,0,0,0,0,0,0,0,0,0,0,0,0,0,0,0,0,0,0,0,0,0,0,0,0,0,0,0,0,0,0,0,0,0,0,0,0,0,0,0,0,0,0,0,0,0,0,0,0],"sum_hessian":[2.013E3,1.116E3,8.97E2,3.86E2,7.3E2,5.93E2,3.04E2,2.89E2,9.7E1,4E1,6.9E2,4.99E2,9.4E1,2.21E2,8.3E1,2.28E2,6.1E1,5.8E1,3.9E1,7E0,3.3E1,6.75E2,1.5E1,3.38E2,1.61E2,6E1,3.4E1,8.8E1,1.33E2,3.9E1,4.4E1,2.14E2,1.4E1,3.1E1,3E1,5.4E1,4E0,9E0,2.4E1,1.2E1,6.63E2,1.4E1,1E0,3.8E1,3E2,2E1,1.41E2,1E0,5.9E1,3.3E1,1E0,6.9E1,1.9E1,8.6E1,4.7E1,3E1,9E0,2.8E1,1.6E1,2.13E2,1E0,1.2E1,1.9E1,2.9E1,1E0,3E0,1E0,1.1E1,1E0,6.49E2,1.4E1,2.2E1,2.78E2,1.9E1,1E0,4.3E1,9.8E1,3.2E1,1E0,5.4E1,3.2E1,1.9E1,2.8E1,2.6E1,4E0,1.6E1,1.2E1,9E0,7E0,2.12E2,1E0,9E0,1E1,6.27E2,2.2E1,3E0,1.9E1,7.8E1,2E2,3.9E1,4E0,4.6E1,5.2E1,3.1E1,1E0,2.2E1,3.2E1,5E0,2.7E1,1.2E1,1.6E1,2.5E1,1E0,1E0,3E0,1.4E1,2E0,1.1E1,1E0,4E0,3E0],"tree_param":{"num_deleted":"0","num_feature":"111","num_nodes":"121","size_leaf_vector":"1"}},{"base_weights":[-1.1804682E0,-5.4798756E1,3.7198013E1,1.8027313E1,-6.632258E1,1.2856339E2,1.0111814E1,2.269451E1,2.3850033E0,-8.825258E1,-5.0523396E1,3.4809947E0,1.6402676E2,-1.1650574E0,2.814156E2,-1.5949901E1,1.0880757E1,-9.32055E1,-4.0404396E0,-6.473249E1,-2.3501396E1,5.449243E1,-9.38494E0,7.1417694E1,2.2372934E2,1.6140086E2,-8.606431E0,3.350152E1,2.1582565E2,-2.4523039E1,7.820507E1,-1.0313571E2,-8.139808E1,-2.2385056E1,-8.160083E1,1.694024E1,-3.2741932E1,3.0942839E1,6.1310867E1,1.3615572E1,-6.789656E1,1.489704E2,2.7257916E2,-3.3710973E0,1.6758527E2,-1.8604914E1,5.7701004E1,2.2138119E1,5.7913117E0,-2.160326E0,-5.4080135E1,-1.2170495E0,9.285451E0,-8.891582E1,-1.09534235E1,-4.5021095E1,-8.689146E1,-6.4881372E0,2.1733292E1,-9.446369E1,-6.0328003E1,6.9222994E0,1.8321468E1,-4.1702187E1,-1.7937664E1,3.966493E0,5.762947E0,6.30134E1,5.968674E-1,-4.187081E0,-7.8583283E0,1.3133006E1,1.837279E1,2.7428274E1,7.3256946E0,2.1243655E2,1.1883986E2,5.825688E1,-2.8543858E1,4.566025E1,8.291854E1,-1.8976961E0,5.267377E0,4.818333E0,-7.156453E0,-8.982886E0,-2.2088356E0,-5.9223323E0,-3.5718632E0,-8.921871E0,-5.4464307E0,-2.5215645E0,2.3583667E0,-8.104366E0,-1.2389866E1,-4.5026464E0,-6.8152833E0,7.621166E-1,2.0634155E-1,2.1224027E0,1.2135485E0,-2.825239E0,-4.5834804E0,-4.3086702E-1,-1.9105275E0,1.6125642E-1,6.608887E-1,6.5772133E0,1.718038E0,3.7075562E0,2.2057098E1,1.8305336E0,1.3550446E1,7.399498E0,1.8784689E0,-6.8563285E0,-5.309596E-1,5.2681994E0,1.8191719E0,9.742458E0,-1.0137635E-1],"categories":[],"categories_nodes":[],"categories_segments":[],"categories_sizes":[],"default_left":[0,0,0,0,0,0,0,0,0,0,0,0,0,0,0,0,0,0,0,0,0,0,0,0,0,0,0,0,0,0,0,0,0,0,0,0,0,0,0,0,0,0,0,0,0,0,0,0,0,0,0,0,0,0,0,0,0,0,0,0,0,0,0,0,0,0,0,0,0,0,0,0,0,0,0,0,0,0,0,0,0,0,0,0,0,0,0,0,0,0,0,0,0,0,0,0,0,0,0,0,0,0,0,0,0,0,0,0,0,0,0,0,0,0,0,0,0,0,0,0,0],"id":6,"left_children":[1,3,5,7,9,11,13,-1,15,17,19,21,23,25,27,29,-1,31,-1,33,35,37,-1,39,41,43,45,-1,47,49,51,53,55,57,59,61,63,65,67,-1,69,71,73,-1,75,77,79,-1,-1,81,83,-1,-1,85,-1,87,89,-1,91,93,95,97,99,101,103,-1,105,107,-1,-1,-1,-1,-1,-1,-1,109,111,113,115,117,119,-1,-1,-1,-1,-1,-1,-1,-1,-1,-1,-1,-1,-1,-1,-1,-1,-1,-1,-1,-1,-1,-1,-1,-1,-1,-1,-1,-1,-1,-1,-1,-1,-1,-1,-1,-1,-1,-1,-1,-1],"loss_changes":[4.1237888E6,7.027955E5,2.8891975E6,3.7527378E5,2.4569725E5,1.1837995E6,2.7599585E6,0E0,2.1247022E5,6.75675E4,1.60509E5,3.030119E5,1.1340535E6,1.050211E6,5.42565E4,7.698776E4,0E0,2.3497E4,0E0,1.9532862E5,5.5488914E4,4.5257188E3,0E0,7.578157E5,4.19541E5,5.1502188E4,5.5134175E5,0E0,3.8475625E3,5.6727188E4,1.1721695E4,3.36275E3,2.1866438E4,1.5139947E5,4.820625E4,2.6061084E2,1.5169961E4,2.187248E3,2.4505625E3,0E0,4.2191562E3,7.753875E3,5.374E3,0E0,5.5646875E4,5.5321675E5,2.9310438E4,0E0,0E0,4.7105836E4,6.9604766E4,0E0,0E0,1.066625E3,0E0,3.948203E2,3.5175E3,0E0,4.0695996E3,3.7756E4,6.1506875E3,1.2529297E0,1.7336035E2,2.8181953E3,6.6561035E2,0E0,3.3866425E0,2.536789E3,0E0,0E0,0E0,0E0,0E0,0E0,0E0,1.74985E4,3.1026906E4,5.0171062E4,5.94722E5,1.3700266E4,4.149464E4,0E0,0E0,0E0,0E0,0E0,0E0,0E0,0E0,0E0,0E0,0E0,0E0,0E0,0E0,0E0,0E0,0E0,0E0,0E0,0E0,0E0,0E0,0E0,0E0,0E0,0E0,0E0,0E0,0E0,0E0,0E0,0E0,0E0,0E0,0E0,0E0,0E0,0E0,0E0,0E0],"parents":[2147483647,0,0,1,1,2,2,3,3,4,4,5,5,6,6,8,8,9,9,10,10,11,11,12,12,13,13,14,14,15,15,17,17,19,19,20,20,21,21,23,23,24,24,25,25,26,26,28,28,29,29,30,30,31,31,32,32,33,33,34,34,35,35,36,36,37,37,38,38,40,40,41,41,42,42,44,44,45,45,46,46,49,49,50,50,53,53,55,55,56,56,58,58,59,59,60,60,61,61,62,62,63,63,64,64,66,66,67,67,75,75,76,76,77,77,78,78,79,79,80,80],"right_children":[2,4,6,8,10,12,14,-1,16,18,20,22,24,26,28,30,-1,32,-1,34,36,38,-1,40,42,44,46,-1,48,50,52,54,56,58,60,62,64,66,68,-1,70,72,74,-1,76,78,80,-1,-1,82,84,-1,-1,86,-1,88,90,-1,92,94,96,98,100,102,104,-1,106,108,-1,-1,-1,-1,-1,-1,-1,110,112,114,116,118,120,-1,-1,-1,-1,-1,-1,-1,-1,-1,-1,-1,-1,-1,-1,-1,-1,-1,-1,-1,-1,-1,-1,-1,-1,-1,-1,-1,-1,-1,-1,-1,-1,-1,-1,-1,-1,-1,-1,-1,-1],"split_conditions":[-5.059291E-1,-6.956868E-1,-9.327799E-1,-1.4181759E0,-6.037527E-1,-1.2351196E0,3.6398919E0,2.269451E1,2.8539371E0,1.6821438E0,4.92918E-1,-1.8051518E-2,-7.7062184E-1,-9.352466E-1,6.043845E-1,2.9781952E0,1.0880757E1,-6.3551277E-1,-4.0404396E0,-3.7176526E-1,-8.32E-1,-3.9473408E-1,-9.38494E0,-9.3759835E-1,-1.0598502E0,-9.517091E-1,1.9572577E0,3.350152E1,3.9384892E0,-4.178545E-1,-8.411753E-1,-3.8068143E-1,-4.2449877E-1,-5.805742E-1,1.3198145E-1,-5.9606415E-1,1.0740542E0,8.1928775E-2,7.1346674E0,1.3615572E1,-4.8297366E-1,5.8422613E-1,2.3763523E-1,-3.3710973E0,1.3077831E0,-8.188548E-1,3.7846432E0,2.2138119E1,5.7913117E0,-8.411753E-1,-1.3621899E0,-1.2170495E0,9.285451E0,4.1317716E0,-1.09534235E1,-1.803245E-1,3.8939035E0,-6.4881372E0,-4.0395442E-1,-5.3842384E-1,-5.519061E-1,-5.894551E-1,-5.303125E-1,-5.7892E-1,-5.708865E-1,3.966493E0,2.1749392E-1,9.098676E-1,5.968674E-1,-4.187081E0,-7.8583283E0,1.3133006E1,1.837279E1,2.7428274E1,7.3256946E0,-1.7849561E0,-1.0470105E0,-5.918864E-1,-5.2051377E-2,1.331996E-1,2.6807668E0,-1.8976961E0,5.267377E0,4.818333E0,-7.156453E0,-8.982886E0,-2.2088356E0,-5.9223323E0,-3.5718632E0,-8.921871E0,-5.4464307E0,-2.5215645E0,2.3583667E0,-8.104366E0,-1.2389866E1,-4.5026464E0,-6.8152833E0,7.621166E-1,2.0634155E-1,2.1224027E0,1.2135485E0,-2.825239E0,-4.5834804E0,-4.3086702E-1,-1.9105275E0,1.6125642E-1,6.608887E-1,6.5772133E0,1.718038E0,3.7075562E0,2.2057098E1,1.8305336E0,1.3550446E1,7.399498E0,1.8784689E0,-6.8563285E0,-5.309596E-1,5.2681994E0,1.8191719E0,9.742458E0,-1.0137635E-1],"split_indices":[4,1,2,3,4,2,67,0,70,3,1,0,0,0,4,25,0,4,0,1,2,5,0,0,2,0,1,0,30,0,0,2,2,1,2,6,2,4,23,0,4,4,7,0,4,2,22,0,0,0,2,0,0,9,0,0,75,0,7,2,0,4,4,6,4,0,4,79,0,0,0,0,0,0,0,5,5,0,2,4,104,0,0,0,0,0,0,0,0,0,0,0,0,0,0,0,0,0,0,0,0,0,0,0,0,0,0,0,0,0,0,0,0,0,0,0,0,0,0,0,0],"split_type":[0,0,0,0,0,0,0,0,0,0,0,0,0,0,0,0,0,0,0,0,0,0,0,0,0,0,0,0,0,0,0,0,0,0,0,0,0,0,0,0,0,0,0,0,0,0,0,0,0,0,0,0,0,0,0,0,0,0,0,0,0,0,0,0,0,0,0,0,0,0,0,0,0,0,0,0,0,0,0,0,0,0,0,0,0,0,0,0,0,0,0,0,0,0,0,0,0,0,0,0,0,0,0,0,0,0,0,0,0,0,0,0,0,0,0,0,0,0,0,0,0],"sum_hessian":[2.002E3,8.35E2,1.167E3,1.14E2,7.21E2,2.66E2,9.01E2,7E0,1.07E2,3E2,4.21E2,5.9E1,2.07E2,8.66E2,3.5E1,9.2E1,1.5E1,2.71E2,2.9E1,2.75E2,1.46E2,3.9E1,2E1,8.2E1,1.25E2,3.7E1,8.29E2,1.7E1,1.8E1,8.5E1,7E0,1.43E2,1.28E2,7.9E1,1.96E2,2.7E1,1.19E2,1E1,2.9E1,5.6E1,2.6E1,5.1E1,7.4E1,1E0,3.6E1,7.21E2,1.08E2,1.7E1,1E0,4.9E1,3.6E1,1E0,6E0,4.9E1,9.4E1,1.8E1,1.1E2,4E1,3.9E1,1.2E2,7.6E1,4E0,2.3E1,7.3E1,4.6E1,7E0,3E0,2.8E1,1E0,9E0,1.7E1,3.7E1,1.4E1,7.3E1,1E0,1.7E1,1.9E1,8.2E1,6.39E2,7.5E1,3.3E1,3.8E1,1.1E1,5E0,3.1E1,4.8E1,1E0,5E0,1.3E1,1.01E2,9E0,1E0,3.8E1,8.5E1,3.5E1,2.8E1,4.8E1,3E0,1E0,1.4E1,9E0,1.9E1,5.4E1,4E0,4.2E1,1E0,2E0,2.6E1,2E0,1E0,1.6E1,3E0,1.6E1,5.8E1,2.4E1,2.34E2,4.05E2,5.9E1,1.6E1,2.8E1,5E0],"tree_param":{"num_deleted":"0","num_feature":"111","num_nodes":"121","size_leaf_vector":"1"}},{"base_weights":[2.240532E-1,8.128476E1,-2.4872616E1,1.1134949E2,-2.9454704E1,-3.0853249E1,2.3935855E2,8.741345E1,2.6422797E2,-8.458919E0,1.7344852E1,-5.8511967E1,-4.4868717E0,2.8835882E1,1.8549736E1,2.344313E1,6.036507E1,2.945319E1,2.0835432E2,1.5158839E1,2.4097E0,-7.051952E1,9.917247E0,1.2839316E2,-2.7369429E1,1.04110916E2,2.142697E0,9.173484E0,2.2269453E1,1.6715107E1,8.828999E0,-4.91166E1,-9.916756E1,-1.830244E1,3.5533215E1,3.474666E1,1.3063129E2,-7.681572E0,-6.77167E1,1.3064272E2,4.958356E1,-6.0075184E1,6.643334E1,1.784202E1,8.294693E0,5.131447E0,1.4016854E0,-5.6346504E1,1.9214972E1,-1.1234494E2,-8.86321E0,-2.9634336E1,1.8844496E1,4.8576836E1,6.202788E0,4.432503E0,3.0057678E-1,1.5903082E2,1.1583371E2,-2.522701E1,7.202687E1,-3.3291508E1,-1.0624324E2,1.1600125E1,1.438709E1,5.5807304E0,3.3121088E0,-5.272789E0,-7.354142E0,8.2581415E0,3.7567601E0,1.8619593E0,4.637339E-1,9.1225713E-1,2.077652E-1,6.054327E-1,1.5752055E-1,-6.0284185E0,2.3221605E0,-4.0880313E0,2.2184844E0,-1.0257087E1,-1.2991343E1,-3.683915E0,-3.6154982E-1,2.942807E0,1.5923132E-1,5.0170684E0,-6.791504E-1,1.0282698E0,-1.8984299E0,7.2465205E0,1.7444214E1,1.1666314E1,2.681343E0,-2.6892169E0,1.8355597E1,-7.01941E0,1.8420305E1,-2.5351894E0,-5.2252E0,-8.837061E0,-1.3605853E1],"categories":[],"categories_nodes":[],"categories_segments":[],"categories_sizes":[],"default_left":[0,0,0,0,0,0,0,0,0,0,0,0,0,0,0,0,0,0,0,0,0,0,0,0,0,0,0,0,0,0,0,0,0,0,0,0,0,0,0,0,0,0,0,0,0,0,0,0,0,0,0,0,0,0,0,0,0,0,0,0,0,0,0,0,0,0,0,0,0,0,0,0,0,0,0,0,0,0,0,0,0,0,0,0,0,0,0,0,0,0,0,0,0,0,0,0,0,0,0,0,0,0,0],"id":7,"left_children":[1,3,5,7,9,11,13,15,17,-1,19,21,23,-1,-1,-1,25,-1,27,29,-1,31,33,35,37,39,41,-1,-1,43,45,47,49,51,53,55,57,59,61,63,65,67,69,71,73,75,-1,77,79,81,-1,83,85,87,89,-1,-1,91,93,95,97,99,101,-1,-1,-1,-1,-1,-1,-1,-1,-1,-1,-1,-1,-1,-1,-1,-1,-1,-1,-1,-1,-1,-1,-1,-1,-1,-1,-1,-1,-1,-1,-1,-1,-1,-1,-1,-1,-1,-1,-1,-1],"loss_changes":[4.0788668E6,1.5813922E6,2.4267775E6,1.341823E6,2.6465462E5,1.0921695E6,3.62435E4,1.2742655E6,2.3293E4,0E0,4.6129492E2,6.013385E5,2.3387215E6,0E0,0E0,0E0,7.001983E5,0E0,1.4690375E4,2.9571387E2,0E0,3.7650925E5,8.0166555E4,1.9145E4,5.2057422E5,2.2065562E5,4.7999428E5,0E0,0E0,1.8412305E2,1.3907928E2,1.7794562E5,2.68325E4,2.2868541E4,2.1888031E4,1.0828735E3,2.780575E4,6.199627E5,2.8161388E5,3.647E3,3.5818828E3,2.1576875E3,2.4399047E4,2.2168262E2,1.1928162E1,1.671904E1,0E0,1.029135E5,7.1535557E3,6.25025E3,0E0,7.552703E3,2.326808E3,3.8706797E3,2.1476697E3,0E0,0E0,3.4052188E4,2.4833125E3,1.3113555E5,1.2892345E6,1.5987289E4,4.1797125E4,0E0,0E0,0E0,0E0,0E0,0E0,0E0,0E0,0E0,0E0,0E0,0E0,0E0,0E0,0E0,0E0,0E0,0E0,0E0,0E0,0E0,0E0,0E0,0E0,0E0,0E0,0E0,0E0,0E0,0E0,0E0,0E0,0E0,0E0,0E0,0E0,0E0,0E0,0E0,0E0],"parents":[2147483647,0,0,1,1,2,2,3,3,4,4,5,5,6,6,7,7,8,8,10,10,11,11,12,12,16,16,18,18,19,19,21,21,22,22,23,23,24,24,25,25,26,26,29,29,30,30,31,31,32,32,33,33,34,34,35,35,36,36,37,37,38,38,39,39,40,40,41,41,42,42,43,43,44,44,45,45,47,47,48,48,49,49,51,51,52,52,53,53,54,54,57,57,58,58,59,59,60,60,61,61,62,62],"right_children":[2,4,6,8,10,12,14,16,18,-1,20,22,24,-1,-1,-1,26,-1,28,30,-1,32,34,36,38,40,42,-1,-1,44,46,48,50,52,54,56,58,60,62,64,66,68,70,72,74,76,-1,78,80,82,-1,84,86,88,90,-1,-1,92,94,96,98,100,102,-1,-1,-1,-1,-1,-1,-1,-1,-1,-1,-1,-1,-1,-1,-1,-1,-1,-1,-1,-1,-1,-1,-1,-1,-1,-1,-1,-1,-1,-1,-1,-1,-1,-1,-1,-1,-1,-1,-1,-1],"split_conditions":[-8.188548E-1,7.3451877E-1,3.6398919E0,-1.8051518E-2,7.674438E-1,1.3198145E-1,6.265463E-1,-1.4181759E0,4.8362398E-1,-8.458919E0,4.2321876E-1,5.8126026E-1,-8.0276835E-1,2.8835882E1,1.8549736E1,2.344313E1,-1.0379416E0,2.945319E1,1.8973196E0,2.7855198E0,2.4097E0,-4.2449877E-1,-1.779727E-1,-1.7849561E0,1.5385181E0,-4.5313123E-1,-7.7062184E-1,9.173484E0,2.2269453E1,2.369029E0,-9.881133E-1,3.7221453E0,4.1937998E-1,-6.6434043E-3,-1.4523642E-1,1.6249039E0,-9.352466E-1,-3.7825704E-2,-5.519061E-1,-2.586994E-1,9.159149E-2,-4.8487526E-1,-2.8316876E-1,2.6784647E-1,-9.056497E-2,-5.004045E-1,1.4016854E0,3.7866004E0,-9.517091E-1,-5.729378E-1,-8.86321E0,1.4174099E0,-6.599087E-1,1.0592924E1,3.1206913E0,4.432503E0,3.0057678E-1,-1.2226669E-1,5.368354E0,8.6389885E0,1.3687198E-1,-2.1907839E-1,-5.8469784E-1,1.1600125E1,1.438709E1,5.5807304E0,3.3121088E0,-5.272789E0,-7.354142E0,8.2581415E0,3.7567601E0,1.8619593E0,4.637339E-1,9.1225713E-1,2.077652E-1,6.054327E-1,1.5752055E-1,-6.0284185E0,2.3221605E0,-4.0880313E0,2.2184844E0,-1.0257087E1,-1.2991343E1,-3.683915E0,-3.6154982E-1,2.942807E0,1.5923132E-1,5.0170684E0,-6.791504E-1,1.0282698E0,-1.8984299E0,7.2465205E0,1.7444214E1,1.1666314E1,2.681343E0,-2.6892169E0,1.8355597E1,-7.01941E0,1.8420305E1,-2.5351894E0,-5.2252E0,-8.837061E0,-1.3605853E1],"split_indices":[2,0,67,0,0,2,4,3,4,0,6,1,1,0,0,0,2,0,6,13,0,2,0,5,2,0,0,0,0,104,107,101,0,4,6,4,0,6,0,4,4,6,4,4,5,4,0,44,0,6,0,5,110,53,104,0,0,7,54,50,1,4,4,0,0,0,0,0,0,0,0,0,0,0,0,0,0,0,0,0,0,0,0,0,0,0,0,0,0,0,0,0,0,0,0,0,0,0,0,0,0,0,0],"split_type":[0,0,0,0,0,0,0,0,0,0,0,0,0,0,0,0,0,0,0,0,0,0,0,0,0,0,0,0,0,0,0,0,0,0,0,0,0,0,0,0,0,0,0,0,0,0,0,0,0,0,0,0,0,0,0,0,0,0,0,0,0,0,0,0,0,0,0,0,0,0,0,0,0,0,0,0,0,0,0,0,0,0,0,0,0,0,0,0,0,0,0,0,0,0,0,0,0,0,0,0,0,0,0],"sum_hessian":[2.003E3,4.73E2,1.53E3,3.72E2,1.01E2,1.497E3,3.3E1,3.23E2,4.9E1,4.6E1,5.5E1,7.3E2,7.67E2,1.5E1,1.8E1,4.9E1,2.74E2,2.9E1,2E1,4.4E1,1.1E1,6.21E2,1.09E2,1.12E2,6.55E2,1.56E2,1.18E2,3E0,1.7E1,3.4E1,1E1,3.57E2,2.64E2,5.2E1,5.7E1,3E0,1.09E2,4.41E2,2.14E2,1.04E2,5.2E1,6E1,5.8E1,2.9E1,5E0,7E0,3E0,3.23E2,3.4E1,1.13E2,1.51E2,4E1,1.2E1,3.9E1,1.8E1,2E0,1E0,3.4E1,7.5E1,3.62E2,7.9E1,1.14E2,1E2,5.4E1,5E1,3.6E1,1.6E1,4.2E1,1.8E1,3.6E1,2.2E1,2.7E1,2E0,4E0,1E0,5E0,2E0,3.08E2,1.5E1,1E0,3.3E1,7.7E1,3.6E1,3.1E1,9E0,7E0,5E0,3.8E1,1E0,1.6E1,2E0,6E0,2.8E1,7.4E1,1E0,3.6E2,2E0,3.5E1,4.4E1,8.2E1,3.2E1,6.5E1,3.5E1],"tree_param":{"num_deleted":"0","num_feature":"111","num_nodes":"103","size_leaf_vector":"1"}},{"base_weights":[2.9700673E0,-4.5116917E1,3.6438698E1,1.6956457E1,-5.433964E1,1.158297E2,1.1221399E1,1.8657463E1,3.353469E0,-7.220896E1,-4.0565407E1,9.755315E0,1.4684357E2,1.3368613E0,2.1948735E2,3.295412E1,-4.4548958E1,-7.983977E1,-4.736239E1,-5.3119694E1,-1.7982008E1,4.635846E1,-7.674985E0,6.673473E1,1.9419824E2,2.4379705E1,-3.0445679E1,2.5796768E2,1.4998763E2,-1.4517619E1,8.565696E1,4.116605E0,-6.138096E1,-8.588812E1,-7.078518E1,-3.2390592E0,-6.805078E0,-1.7913729E1,-6.7866455E1,1.4415932E1,-2.7404163E1,5.175764E1,2.8256176E1,1.1266293E2,-5.9973236E1,1.2649552E2,2.3081218E2,4.4688196E0,1.6561069E2,-7.165936E1,-1.8749143E0,7.4202E0,2.6253284E1,6.478193E0,1.5702959E1,4.810923E0,-1.801602E1,-2.6810608E0,9.464788E0,-7.366755E0,-4.1725883E1,-9.186741E0,-7.6834474E0,-9.425941E0,-6.624627E1,-5.4130894E1,2.0620052E1,-8.004318E1,-4.9349277E1,1.5588775E1,4.495688E0,-3.4380886E1,-1.1767261E1,3.8545377E0,6.503812E1,1.0671066E1,3.7912987E1,2.9345276E0,1.13547735E1,-3.6198006E0,-7.024016E0,8.111003E0,1.3187253E1,2.328551E2,9.463013E0,3.1278973E1,-7.091548E1,4.694995E1,5.863554E1,-5.5744884E1,-9.94338E0,-1.9884375E1,2.9608381E1,-2.4752605E-1,9.07283E-1,-2.4177663E0,-1.4034399E0,-4.356037E0,-8.0215305E-1,-4.515902E0,-7.2181687E0,-5.561003E0,-2.6546364E0,2.0996816E0,3.1515047E-1,-7.1440597E0,-1.1748497E1,-3.526613E0,-5.7288537E0,1.6910069E0,7.4852526E-1,1.02926634E-1,5.104977E-1,-2.1373465E0,-3.8427923E0,4.340851E-1,-1.2335287E0,1.1152467E0,6.7886996E0,4.4286272E-1,1.5437297E0,4.0141907E-1,4.2182217E0,2.3405092E1,6.5007358E0,-6.145784E0,5.9716797E0,-4.0912776E0,-9.465342E0,6.9030037E0,-1.062303E0,-3.0624964E0,-6.1471214E0,-1.0436615E0,-4.7389593E0,3.9178746E0,1.5080642E0],"categories":[],"categories_nodes":[],"categories_segments":[],"categories_sizes":[],"default_left":[0,0,0,0,0,0,0,0,0,0,0,0,0,0,0,0,0,0,0,0,0,0,0,0,0,0,0,0,0,0,0,0,0,0,0,0,0,0,0,0,0,0,0,0,0,0,0,0,0,0,0,0,0,0,0,0,0,0,0,0,0,0,0,0,0,0,0,0,0,0,0,0,0,0,0,0,0,0,0,0,0,0,0,0,0,0,0,0,0,0,0,0,0,0,0,0,0,0,0,0,0,0,0,0,0,0,0,0,0,0,0,0,0,0,0,0,0,0,0,0,0,0,0,0,0,0,0,0,0,0,0,0,0,0,0,0,0],"id":8,"left_children":[1,3,5,7,9,11,13,-1,15,17,19,21,23,25,27,29,31,33,35,37,39,41,-1,43,45,47,49,51,53,55,57,-1,59,61,63,-1,-1,65,67,69,71,73,75,77,79,81,83,85,87,89,91,-1,-1,-1,-1,93,95,-1,-1,-1,97,-1,-1,-1,99,101,103,105,107,109,111,113,115,-1,117,119,121,-1,-1,-1,-1,-1,-1,123,-1,125,127,-1,129,131,-1,133,135,-1,-1,-1,-1,-1,-1,-1,-1,-1,-1,-1,-1,-1,-1,-1,-1,-1,-1,-1,-1,-1,-1,-1,-1,-1,-1,-1,-1,-1,-1,-1,-1,-1,-1,-1,-1,-1,-1,-1,-1,-1,-1,-1,-1],"loss_changes":[3.2510338E6,4.75512E5,2.383114E6,2.4856425E5,1.7478125E5,9.427335E5,1.862751E6,0E0,1.4468033E5,5.5563125E4,1.15287375E5,2.1253783E5,8.292035E5,6.342337E5,7.0957375E4,1.5886295E5,5.8794258E4,6.954625E3,2.1336219E4,1.3532706E5,4.55733E4,3.1311953E3,0E0,4.9559212E5,3.153655E5,1.4109009E6,4.2847803E5,1.4925E3,2.759375E1,2.3857192E3,3.2873156E4,0E0,4.895453E3,4.119375E2,4.5169688E3,0E0,0E0,1.1136733E5,3.7763438E4,3.255044E2,1.2141281E4,3.6343516E3,1.8030361E3,1.2385625E3,3.0717188E3,1.74975E3,2.725E3,8.935077E5,1.9880008E6,6.0317375E4,1.2306013E5,0E0,0E0,0E0,0E0,2.0877583E2,3.7214844E2,0E0,0E0,0E0,5.780293E2,0E0,0E0,0E0,7.7545625E3,1.9660938E2,1.9050781E2,2.7037375E4,6.477203E3,1.946377E2,5.3058853E0,3.3373438E3,3.9208984E2,0E0,1.6991172E3,1.1015137E2,9.884463E2,0E0,0E0,0E0,0E0,0E0,0E0,2.2475E3,0E0,8.63408E5,7.8742875E4,0E0,3.4568984E4,1.2070406E4,0E0,3.5366465E4,1.0392977E4,0E0,0E0,0E0,0E0,0E0,0E0,0E0,0E0,0E0,0E0,0E0,0E0,0E0,0E0,0E0,0E0,0E0,0E0,0E0,0E0,0E0,0E0,0E0,0E0,0E0,0E0,0E0,0E0,0E0,0E0,0E0,0E0,0E0,0E0,0E0,0E0,0E0,0E0,0E0,0E0,0E0,0E0,0E0,0E0],"parents":[2147483647,0,0,1,1,2,2,3,3,4,4,5,5,6,6,8,8,9,9,10,10,11,11,12,12,13,13,14,14,15,15,16,16,17,17,18,18,19,19,20,20,21,21,23,23,24,24,25,25,26,26,27,27,28,28,29,29,30,30,32,32,33,33,34,34,37,37,38,38,39,39,40,40,41,41,42,42,43,43,44,44,45,45,46,46,47,47,48,48,49,49,50,50,55,55,56,56,60,60,64,64,65,65,66,66,67,67,68,68,69,69,70,70,71,71,72,72,74,74,75,75,76,76,83,83,85,85,86,86,88,88,89,89,91,91,92,92],"right_children":[2,4,6,8,10,12,14,-1,16,18,20,22,24,26,28,30,32,34,36,38,40,42,-1,44,46,48,50,52,54,56,58,-1,60,62,64,-1,-1,66,68,70,72,74,76,78,80,82,84,86,88,90,92,-1,-1,-1,-1,94,96,-1,-1,-1,98,-1,-1,-1,100,102,104,106,108,110,112,114,116,-1,118,120,122,-1,-1,-1,-1,-1,-1,124,-1,126,128,-1,130,132,-1,134,136,-1,-1,-1,-1,-1,-1,-1,-1,-1,-1,-1,-1,-1,-1,-1,-1,-1,-1,-1,-1,-1,-1,-1,-1,-1,-1,-1,-1,-1,-1,-1,-1,-1,-1,-1,-1,-1,-1,-1,-1,-1,-1,-1,-1],"split_conditions":[-5.059291E-1,-6.956868E-1,-9.327799E-1,-1.4181759E0,-6.037527E-1,-1.2351196E0,3.6398919E0,1.8657463E1,-4.178545E-1,7.674438E-1,4.92918E-1,-1.8051518E-2,-7.7062184E-1,-2.5322974E-1,9.2099196E-1,-8.411753E-1,-1.3621899E0,-6.3551277E-1,3.4155505E0,-3.7176526E-1,-8.32E-1,2.1749392E-1,-7.674985E0,-9.3759835E-1,-1.0598502E0,-3.6141172E-1,5.8126026E-1,-4.0395442E-1,1.0852956E0,-5.675061E-1,-1.0576736E0,4.116605E0,-3.9904025E-1,4.1937998E-1,-5.354436E-1,-3.2390592E0,-6.805078E0,-5.805742E-1,1.3198145E-1,8.7926704E-1,1.0740542E0,-3.5785872E-1,-4.757462E-1,-3.4038622E0,-3.9253715E-1,-3.7255973E-1,3.9504914E0,-3.7176526E-1,-3.2143143E-1,-2.3750307E-2,5.745976E-1,7.4202E0,2.6253284E1,6.478193E0,1.5702959E1,-5.919523E-1,-5.0751567E-2,-2.6810608E0,9.464788E0,-7.366755E0,2.0455778E0,-9.186741E0,-7.6834474E0,-9.425941E0,-5.0251865E-1,-5.2360404E-1,2.6129415E0,-1.803245E-1,-5.519061E-1,2.901646E0,-2.1612031E0,-5.8554626E-1,-5.9606415E-1,3.8545377E0,-1.9337323E0,3.20302E-1,2.5665772E-1,2.9345276E0,1.13547735E1,-3.6198006E0,-7.024016E0,8.111003E0,1.3187253E1,3.864388E1,9.463013E0,-1.0576736E0,-5.519061E-1,4.694995E1,2.6807668E0,-3.8041288E-1,-9.94338E0,1.2585509E0,-1.4523642E-1,-2.4752605E-1,9.07283E-1,-2.4177663E0,-1.4034399E0,-4.356037E0,-8.0215305E-1,-4.515902E0,-7.2181687E0,-5.561003E0,-2.6546364E0,2.0996816E0,3.1515047E-1,-7.1440597E0,-1.1748497E1,-3.526613E0,-5.7288537E0,1.6910069E0,7.4852526E-1,1.02926634E-1,5.104977E-1,-2.1373465E0,-3.8427923E0,4.340851E-1,-1.2335287E0,1.1152467E0,6.7886996E0,4.4286272E-1,1.5437297E0,4.0141907E-1,4.2182217E0,2.3405092E1,6.5007358E0,-6.145784E0,5.9716797E0,-4.0912776E0,-9.465342E0,6.9030037E0,-1.062303E0,-3.0624964E0,-6.1471214E0,-1.0436615E0,-4.7389593E0,3.9178746E0,1.5080642E0],"split_indices":[4,1,2,3,4,2,67,0,0,0,1,0,0,0,4,0,2,4,0,1,2,4,0,0,2,0,1,7,6,6,3,0,0,0,0,0,0,1,2,107,2,4,110,5,4,4,25,1,0,1,0,0,0,0,0,4,7,0,0,0,5,0,0,0,0,4,56,0,0,13,5,6,6,0,5,4,6,0,0,0,0,0,0,7,0,3,0,0,104,4,0,1,6,0,0,0,0,0,0,0,0,0,0,0,0,0,0,0,0,0,0,0,0,0,0,0,0,0,0,0,0,0,0,0,0,0,0,0,0,0,0,0,0,0,0,0,0],"split_type":[0,0,0,0,0,0,0,0,0,0,0,0,0,0,0,0,0,0,0,0,0,0,0,0,0,0,0,0,0,0,0,0,0,0,0,0,0,0,0,0,0,0,0,0,0,0,0,0,0,0,0,0,0,0,0,0,0,0,0,0,0,0,0,0,0,0,0,0,0,0,0,0,0,0,0,0,0,0,0,0,0,0,0,0,0,0,0,0,0,0,0,0,0,0,0,0,0,0,0,0,0,0,0,0,0,0,0,0,0,0,0,0,0,0,0,0,0,0,0,0,0,0,0,0,0,0,0,0,0,0,0,0,0,0,0,0,0],"sum_hessian":[2.018E3,8.28E2,1.19E3,1.07E2,7.21E2,2.86E2,9.04E2,7E0,1E2,3.12E2,4.09E2,6.5E1,2.21E2,8.64E2,4E1,6.2E1,3.8E1,2.37E2,7.5E1,2.62E2,1.47E2,4.6E1,1.9E1,8.3E1,1.38E2,5.01E2,3.63E2,2.4E1,1.6E1,3.3E1,2.9E1,6E0,3.2E1,1.37E2,1E2,4.5E1,3E1,7.8E1,1.84E2,3.3E1,1.14E2,3.4E1,1.2E1,6.1E1,2.2E1,5E1,8.8E1,4.4E2,6.1E1,1.48E2,2.15E2,1E0,2.3E1,2E0,1.4E1,5E0,2.8E1,2E0,2.7E1,1.8E1,1.4E1,7.7E1,6E1,1.3E1,8.7E1,4E1,3.8E1,1.09E2,7.5E1,2.9E1,4E0,7.8E1,3.6E1,1.9E1,1.5E1,5E0,7E0,1E0,6E1,8E0,1.4E1,7E0,4.3E1,8.6E1,2E0,3.25E2,1.15E2,1.5E1,4.6E1,9.6E1,5.2E1,1.37E2,7.8E1,2E0,3E0,9E0,1.9E1,1.3E1,1E0,2.1E1,6.6E1,3.7E1,3E0,3.7E1,1E0,9.1E1,1.8E1,2.9E1,4.6E1,2.4E1,5E0,1E0,3E0,2E1,5.8E1,1E0,3.5E1,1E0,1.4E1,3E0,2E0,1E0,6E0,8.5E1,1E0,7.6E1,2.49E2,5.2E1,6.3E1,4E1,6E0,1.9E1,7.7E1,1.03E2,3.4E1,4.6E1,3.2E1],"tree_param":{"num_deleted":"0","num_feature":"111","num_nodes":"137","size_leaf_vector":"1"}},{"base_weights":[1.888707E0,-4.112626E1,3.2333485E1,1.5212089E1,-4.977894E1,1.0310083E2,9.855514E0,1.6677488E1,5.1545978E0,-6.574074E1,-3.77364E1,4.7654596E-1,1.325514E2,9.879657E-1,2.0159154E2,-1.0981989E1,8.047048E0,-7.269684E1,-4.3476643E1,-4.9935894E1,-1.6419506E1,4.0682182E1,-6.990318E0,5.9943073E1,1.7354669E2,1.223021E2,-3.8134184E0,2.3510693E1,1.3662431E2,8.711598E0,-4.3095486E1,-7.399212E1,-4.4686475E0,-2.960164E0,-6.2063313E0,-1.9482916E1,-6.269687E1,1.3388228E1,-2.4976599E1,4.625995E1,2.2882772E1,1.0238096E2,-5.337067E1,1.1300157E2,2.1165747E2,1.4061761E2,3.418481E1,1.4500693E1,-2.5732122E1,1.442678E2,5.5413227E0,-7.070755E0,9.191619E0,3.6340845E0,-5.4898357E1,-7.590295E1,-5.482627E0,-4.936873E1,1.6583534E1,-6.946611E1,-4.105517E1,5.2165246E0,1.4576295E1,-3.16885E1,-1.3490314E1,3.404295E1,6.055711E1,9.31182E0,3.4901752E1,2.7878006E0,1.03171215E1,-2.9307234E0,-6.013969E0,9.886455E1,1.4304865E1,2.1269444E2,6.1756988E0,1.6722044E2,7.867076E1,1.9371811E0,7.653592E0,-4.976036E0,1.3803828E2,-6.3603546E1,-2.0554322E-1,4.1196337E0,1.4902744E2,6.2589455E0,-1.3105646E0,-6.335588E0,-3.6932428E0,-6.934032E0,-8.229198E0,-4.9913077E0,-1.2980896E0,-2.3660095E0,1.8358637E0,-6.3094144E0,-1.0706012E1,-3.1808717E0,-6.0578322E0,5.8687073E-1,9.778061E-2,1.6550907E0,8.971977E-1,-1.9995635E0,-3.5030181E0,-1.5872344E0,-8.031985E-1,3.5564995E0,1.4070363E0,6.3198676E0,1.4429169E0,2.4078675E-1,1.3887818E0,4.0587153E0,3.237381E-1,2.3017824E0,1.00153055E1,2.2281866E1,1.6864988E1,1.9458344E0,1.7476774E1,3.910726E-1,9.687194E0,-2.696558E0,1.5904267E0,1.7462511E0,-6.380584E0,4.077526E1,5.8159943E0,-4.8358226E0,-8.988869E0,-1.6691281E0,2.6704576E0,1.5410922E1,4.402292E0],"categories":[],"categories_nodes":[],"categories_segments":[],"categories_sizes":[],"default_left":[0,0,0,0,0,0,0,0,0,0,0,0,0,0,0,0,0,0,0,0,0,0,0,0,0,0,0,0,0,0,0,0,0,0,0,0,0,0,0,0,0,0,0,0,0,0,0,0,0,0,0,0,0,0,0,0,0,0,0,0,0,0,0,0,0,0,0,0,0,0,0,0,0,0,0,0,0,0,0,0,0,0,0,0,0,0,0,0,0,0,0,0,0,0,0,0,0,0,0,0,0,0,0,0,0,0,0,0,0,0,0,0,0,0,0,0,0,0,0,0,0,0,0,0,0,0,0,0,0,0,0,0,0,0,0,0,0],"id":9,"left_children":[1,3,5,7,9,11,13,-1,15,17,19,21,23,25,27,29,-1,31,33,35,37,39,-1,41,43,45,47,-1,49,51,53,55,-1,-1,-1,57,59,61,63,65,67,69,71,73,75,77,79,81,83,85,-1,87,-1,-1,89,91,-1,93,95,97,99,101,103,105,107,109,111,113,115,-1,-1,-1,-1,117,-1,119,-1,121,123,125,-1,127,129,131,133,-1,135,-1,-1,-1,-1,-1,-1,-1,-1,-1,-1,-1,-1,-1,-1,-1,-1,-1,-1,-1,-1,-1,-1,-1,-1,-1,-1,-1,-1,-1,-1,-1,-1,-1,-1,-1,-1,-1,-1,-1,-1,-1,-1,-1,-1,-1,-1,-1,-1,-1,-1],"loss_changes":[2.663708E6,4.1170088E5,1.8935151E6,1.7139092E5,1.3803238E5,8.673495E5,1.5385075E6,0E0,1.3092523E5,4.5314E4,1.0814325E5,1.8677183E5,6.533785E5,5.0489038E5,5.497475E4,5.6661688E4,0E0,5.29225E3,1.802036E4,1.02148625E5,3.9614793E4,3.1112344E3,0E0,3.9978544E5,3.037365E5,4.8452188E4,3.3515875E5,0E0,1.9374375E3,7.4187125E4,3.3872664E4,4.07875E3,0E0,0E0,0E0,8.704871E4,2.4543188E4,2.6376123E2,8.823891E3,3.3531797E3,1.6323091E3,6.563125E2,1.9838438E3,1.00698125E4,2.3275E2,3.1339562E4,9.411796E3,1.0954661E6,3.673435E5,7.2878125E2,0E0,2.099908E4,0E0,0E0,2.2185312E3,2.763375E3,0E0,2.23625E2,3.0775225E3,2.7021375E4,6.557508E3,1.0848068E1,1.834961E2,2.230086E3,4.7060156E2,7.7171875E1,6.7214844E2,1.8770728E2,9.487505E2,0E0,0E0,0E0,0E0,1.7993438E3,0E0,3.2425E2,0E0,1.6672969E4,1.3228363E4,2.4473044E3,0E0,5.21216E5,1.3120338E6,5.6964125E4,1.01594086E5,0E0,1.5259375E2,0E0,0E0,0E0,0E0,0E0,0E0,0E0,0E0,0E0,0E0,0E0,0E0,0E0,0E0,0E0,0E0,0E0,0E0,0E0,0E0,0E0,0E0,0E0,0E0,0E0,0E0,0E0,0E0,0E0,0E0,0E0,0E0,0E0,0E0,0E0,0E0,0E0,0E0,0E0,0E0,0E0,0E0,0E0,0E0,0E0,0E0,0E0,0E0,0E0,0E0],"parents":[2147483647,0,0,1,1,2,2,3,3,4,4,5,5,6,6,8,8,9,9,10,10,11,11,12,12,13,13,14,14,15,15,17,17,18,18,19,19,20,20,21,21,23,23,24,24,25,25,26,26,28,28,29,29,30,30,31,31,35,35,36,36,37,37,38,38,39,39,40,40,41,41,42,42,43,43,44,44,45,45,46,46,47,47,48,48,49,49,51,51,54,54,55,55,57,57,58,58,59,59,60,60,61,61,62,62,63,63,64,64,65,65,66,66,67,67,68,68,73,73,75,75,77,77,78,78,79,79,81,81,82,82,83,83,84,84,86,86],"right_children":[2,4,6,8,10,12,14,-1,16,18,20,22,24,26,28,30,-1,32,34,36,38,40,-1,42,44,46,48,-1,50,52,54,56,-1,-1,-1,58,60,62,64,66,68,70,72,74,76,78,80,82,84,86,-1,88,-1,-1,90,92,-1,94,96,98,100,102,104,106,108,110,112,114,116,-1,-1,-1,-1,118,-1,120,-1,122,124,126,-1,128,130,132,134,-1,136,-1,-1,-1,-1,-1,-1,-1,-1,-1,-1,-1,-1,-1,-1,-1,-1,-1,-1,-1,-1,-1,-1,-1,-1,-1,-1,-1,-1,-1,-1,-1,-1,-1,-1,-1,-1,-1,-1,-1,-1,-1,-1,-1,-1,-1,-1,-1,-1,-1,-1],"split_conditions":[-5.059291E-1,-6.956868E-1,-9.327799E-1,-1.4181759E0,-6.037527E-1,-1.2351196E0,3.6398919E0,1.6677488E1,2.8539371E0,7.674438E-1,4.92918E-1,-1.8051518E-2,-7.7062184E-1,-9.352466E-1,9.2099196E-1,-4.178545E-1,8.047048E0,3.8939035E0,3.4155505E0,-3.7176526E-1,-8.32E-1,9.159149E-2,-6.990318E0,-9.3759835E-1,-1.0598502E0,1.0293471E0,-2.5322974E-1,2.3510693E1,1.7362783E0,-5.3309184E-1,-1.3621899E0,1.5516633E0,-4.4686475E0,-2.960164E0,-6.2063313E0,-5.805742E-1,4.5622978E-1,-5.7892E-1,1.0740542E0,-3.645638E-1,2.7815092E-2,-3.4038622E0,-4.8297366E-1,7.7189094E-1,3.864388E1,1.7222284E0,1.7613412E0,-3.6141172E-1,5.8126026E-1,-2.262134E-1,5.5413227E0,-1.4559656E0,9.191619E0,3.6340845E0,-3.9904025E-1,1.3687198E-1,-5.482627E0,4.747673E0,-4.0395442E-1,-1.803245E-1,2.2253719E-1,-5.894551E-1,-5.278547E-1,-5.7892E-1,-8.206503E-2,2.0072079E0,9.701545E-2,3.0034283E-1,2.9950461E0,2.7878006E0,1.03171215E1,-2.9307234E0,-6.013969E0,-2.5939665E0,1.4304865E1,2.8410192E0,6.1756988E0,-1.8847245E-1,1.8070192E0,-9.517091E-1,7.653592E0,-3.7176526E-1,-3.2143143E-1,-2.3750307E-2,5.745976E-1,4.1196337E0,2.9950461E0,6.2589455E0,-1.3105646E0,-6.335588E0,-3.6932428E0,-6.934032E0,-8.229198E0,-4.9913077E0,-1.2980896E0,-2.3660095E0,1.8358637E0,-6.3094144E0,-1.0706012E1,-3.1808717E0,-6.0578322E0,5.8687073E-1,9.778061E-2,1.6550907E0,8.971977E-1,-1.9995635E0,-3.5030181E0,-1.5872344E0,-8.031985E-1,3.5564995E0,1.4070363E0,6.3198676E0,1.4429169E0,2.4078675E-1,1.3887818E0,4.0587153E0,3.237381E-1,2.3017824E0,1.00153055E1,2.2281866E1,1.6864988E1,1.9458344E0,1.7476774E1,3.910726E-1,9.687194E0,-2.696558E0,1.5904267E0,1.7462511E0,-6.380584E0,4.077526E1,5.8159943E0,-4.8358226E0,-8.988869E0,-1.6691281E0,2.6704576E0,1.5410922E1,4.402292E0],"split_indices":[4,1,2,3,4,2,67,0,70,0,1,0,0,0,4,0,0,75,0,1,2,4,0,0,2,94,0,0,58,0,2,2,0,0,0,1,2,6,2,4,110,5,4,4,7,4,4,0,1,7,0,1,0,0,0,1,0,29,7,0,1,4,4,6,5,50,7,4,12,0,0,0,0,5,0,4,0,7,4,0,0,1,0,1,0,0,12,0,0,0,0,0,0,0,0,0,0,0,0,0,0,0,0,0,0,0,0,0,0,0,0,0,0,0,0,0,0,0,0,0,0,0,0,0,0,0,0,0,0,0,0,0,0,0,0,0,0],"split_type":[0,0,0,0,0,0,0,0,0,0,0,0,0,0,0,0,0,0,0,0,0,0,0,0,0,0,0,0,0,0,0,0,0,0,0,0,0,0,0,0,0,0,0,0,0,0,0,0,0,0,0,0,0,0,0,0,0,0,0,0,0,0,0,0,0,0,0,0,0,0,0,0,0,0,0,0,0,0,0,0,0,0,0,0,0,0,0,0,0,0,0,0,0,0,0,0,0,0,0,0,0,0,0,0,0,0,0,0,0,0,0,0,0,0,0,0,0,0,0,0,0,0,0,0,0,0,0,0,0,0,0,0,0,0,0,0,0],"sum_hessian":[2.032E3,8.42E2,1.19E3,1.12E2,7.3E2,2.86E2,9.04E2,6E0,1.06E2,3.12E2,4.18E2,6.4E1,2.22E2,8.65E2,3.9E1,8.8E1,1.8E1,2.36E2,7.6E1,2.65E2,1.53E2,4.1E1,2.3E1,8.1E1,1.41E2,3.2E1,8.33E2,2.4E1,1.5E1,5.5E1,3.3E1,2.24E2,1.2E1,4.5E1,3.1E1,7.9E1,1.86E2,3.4E1,1.19E2,3E1,1.1E1,5.9E1,2.2E1,5.6E1,8.5E1,2.6E1,6E0,4.54E2,3.79E2,1.3E1,2E0,4.7E1,8E0,4E0,2.9E1,2.01E2,2.3E1,4.3E1,3.6E1,1.4E2,4.6E1,5E0,2.9E1,7.4E1,4.5E1,1.8E1,1.2E1,6E0,5E0,1E0,5.8E1,6E0,1.6E1,4.1E1,1.5E1,8.4E1,1E0,1.7E1,9E0,4E0,2E0,3.93E2,6.1E1,1.52E2,2.27E2,1E0,1.2E1,3E0,4.4E1,1.8E1,1.1E1,1.05E2,9.6E1,4.2E1,1E0,1E0,3.5E1,1.22E2,1.8E1,3.3E1,1.3E1,4E0,1E0,2E1,9E0,1.8E1,5.6E1,3E1,1.5E1,1.6E1,2E0,1.1E1,1E0,3E0,3E0,4E0,1E0,1E0,4E1,6.5E1,1.9E1,1E0,1.6E1,2E0,7E0,1E0,3E0,2.85E2,1.08E2,1.3E1,4.8E1,9.8E1,5.4E1,1.41E2,8.6E1,1.1E1,1E0],"tree_param":{"num_deleted":"0","num_feature":"111","num_nodes":"137","size_leaf_vector":"1"}},{"base_weights":[2.8247766E0,-3.604911E1,3.0174335E1,1.5692882E1,-4.384698E1,9.263309E1,1.0099504E1,1.5247988E1,6.1516867E0,-5.9785637E1,-3.1686848E1,8.725329E0,1.1964669E2,1.5641516E0,1.8514017E2,-6.922417E0,7.1929407E0,-6.547915E1,-4.0638226E1,-4.2179474E1,-1.4243204E1,3.8625946E1,-6.2882113E0,5.1847702E1,1.5660956E2,1.0276437E2,-3.2149448E0,2.40098E1,1.47751E2,1.007386E1,-3.3213013E1,-6.931028E1,-5.5051067E1,-2.6531227E0,-5.6039457E0,-1.4433648E1,-5.4926483E1,1.192395E1,-2.1756598E1,2.3357027E1,4.2833054E1,8.993987E0,-4.7470882E1,9.9280914E1,1.9228175E2,-4.1510844E0,1.1193275E2,2.3245392E0,-6.63156E1,6.953354E0,1.5833086E2,-1.0762954E1,5.893168E1,3.280585E0,-4.853155E1,-7.070161E1,-4.89556E0,-4.214633E1,-6.2036233E0,-4.42025E1,1.5687243E1,-5.1570072E1,-9.566081E0,4.808983E0,1.2949479E1,-2.7727827E1,-1.1188374E1,2.6906755E0,2.5556844E-1,4.5285744E1,1.066375E1,-2.8610008E0,-5.6204953E0,8.531646E1,1.2547696E1,2.0149006E1,1.5017496E2,1.5435994E2,7.791725E1,1.8872135E1,-1.8683342E1,5.659131E0,-7.1115685E1,1.6191563E2,3.9732835E0,5.531924E-1,-1.3399509E0,-2.8035378E0,8.115756E0,-5.850429E0,-3.2524211E0,-7.7015686E0,-6.21467E0,-4.4164567E0,-1.9500351E0,-4.5117874E0,-1.7568461E0,-2.247709E0,1.720328E0,-5.912383E0,-4.1550784E0,5.944382E-1,1.6921234E-1,1.3622363E0,2.3527478E-1,-1.816177E0,-3.081996E0,3.0772522E-1,-1.2655197E0,4.6436763E0,3.075516E-1,-8.021241E-2,1.4753083E0,1.8010162E0,8.661373E0,6.3445845E0,1.5664627E1,1.8485428E0,1.6274488E1,1.1420276E0,9.20599E0,1.2661663E-1,1.6007511E1,-5.5618978E0,3.9608353E-3,-8.599101E0,-5.188646E0,1.656429E1,4.182178E0],"categories":[],"categories_nodes":[],"categories_segments":[],"categories_sizes":[],"default_left":[0,0,0,0,0,0,0,0,0,0,0,0,0,0,0,0,0,0,0,0,0,0,0,0,0,0,0,0,0,0,0,0,0,0,0,0,0,0,0,0,0,0,0,0,0,0,0,0,0,0,0,0,0,0,0,0,0,0,0,0,0,0,0,0,0,0,0,0,0,0,0,0,0,0,0,0,0,0,0,0,0,0,0,0,0,0,0,0,0,0,0,0,0,0,0,0,0,0,0,0,0,0,0,0,0,0,0,0,0,0,0,0,0,0,0,0,0,0,0,0,0,0,0,0,0,0,0,0,0],"id":10,"left_children":[1,3,5,7,9,11,13,-1,15,17,19,21,23,25,27,29,-1,31,33,35,37,39,-1,41,43,45,47,-1,49,51,53,55,57,-1,-1,59,61,63,65,67,69,-1,71,73,75,-1,77,79,81,-1,83,85,87,-1,89,91,-1,93,-1,95,97,99,-1,101,103,105,107,-1,-1,109,111,-1,-1,113,-1,-1,115,117,119,121,123,-1,125,127,-1,-1,-1,-1,-1,-1,-1,-1,-1,-1,-1,-1,-1,-1,-1,-1,-1,-1,-1,-1,-1,-1,-1,-1,-1,-1,-1,-1,-1,-1,-1,-1,-1,-1,-1,-1,-1,-1,-1,-1,-1,-1,-1,-1,-1],"loss_changes":[2.1083178E6,3.3113612E5,1.4585445E6,1.4001402E5,1.3610275E5,6.4041825E5,1.3174482E6,0E0,8.8216375E4,3.0807E4,7.370925E4,1.5230634E5,5.2817375E5,4.0756E5,4.877325E4,3.8763016E4,0E0,5.572875E3,1.4373578E4,8.868728E4,3.0536457E4,2.2114453E3,0E0,2.9558053E5,2.631255E5,5.4911625E4,2.8153794E5,0E0,1.1334E4,5.4590465E4,3.5976746E4,1.296625E3,3.5150312E3,0E0,0E0,7.332322E4,1.8719562E4,1.9310742E2,7.2624062E3,8.9114355E2,2.5153281E3,0E0,2.0160859E3,9.4145E3,2.31075E3,0E0,3.992725E4,2.5794639E5,4.2372094E4,0E0,3.345E3,1.7066943E3,3.3202004E4,0E0,2.5670312E3,3.5861875E3,0E0,3.728047E2,0E0,2.069375E2,2.758877E3,9.8040625E3,0E0,1.1174652E1,1.8186084E2,1.6883008E3,9.805752E2,0E0,0E0,1.5576562E3,1.9938489E2,0E0,0E0,1.8452812E3,0E0,0E0,7.2525E2,1.40810625E4,1.963839E4,1.0314936E6,2.2613712E5,0E0,1.3558844E4,2.920125E3,0E0,0E0,0E0,0E0,0E0,0E0,0E0,0E0,0E0,0E0,0E0,0E0,0E0,0E0,0E0,0E0,0E0,0E0,0E0,0E0,0E0,0E0,0E0,0E0,0E0,0E0,0E0,0E0,0E0,0E0,0E0,0E0,0E0,0E0,0E0,0E0,0E0,0E0,0E0,0E0,0E0,0E0,0E0,0E0,0E0],"parents":[2147483647,0,0,1,1,2,2,3,3,4,4,5,5,6,6,8,8,9,9,10,10,11,11,12,12,13,13,14,14,15,15,17,17,18,18,19,19,20,20,21,21,23,23,24,24,25,25,26,26,28,28,29,29,30,30,31,31,32,32,35,35,36,36,37,37,38,38,39,39,40,40,42,42,43,43,44,44,46,46,47,47,48,48,50,50,51,51,52,52,54,54,55,55,57,57,59,59,60,60,61,61,63,63,64,64,65,65,66,66,69,69,70,70,73,73,76,76,77,77,78,78,79,79,80,80,82,82,83,83],"right_children":[2,4,6,8,10,12,14,-1,16,18,20,22,24,26,28,30,-1,32,34,36,38,40,-1,42,44,46,48,-1,50,52,54,56,58,-1,-1,60,62,64,66,68,70,-1,72,74,76,-1,78,80,82,-1,84,86,88,-1,90,92,-1,94,-1,96,98,100,-1,102,104,106,108,-1,-1,110,112,-1,-1,114,-1,-1,116,118,120,122,124,-1,126,128,-1,-1,-1,-1,-1,-1,-1,-1,-1,-1,-1,-1,-1,-1,-1,-1,-1,-1,-1,-1,-1,-1,-1,-1,-1,-1,-1,-1,-1,-1,-1,-1,-1,-1,-1,-1,-1,-1,-1,-1,-1,-1,-1,-1,-1],"split_conditions":[-5.059291E-1,-6.956868E-1,-9.327799E-1,-1.4181759E0,-6.080393E-1,-1.2351196E0,3.6398919E0,1.5247988E1,2.8539371E0,7.674438E-1,4.92918E-1,-1.8051518E-2,-7.7062184E-1,-9.352466E-1,9.159149E-2,-4.178545E-1,7.1929407E0,-6.294955E-1,3.4155505E0,-3.7176526E-1,-8.32E-1,-6.0428742E-2,-6.2882113E0,-9.3759835E-1,-1.0598502E0,-9.517091E-1,1.8839116E0,2.40098E1,-1.1097666E0,-8.411753E-1,-1.3621899E0,1.5516633E0,-1.20367646E-1,-2.6531227E0,-5.6039457E0,-5.805742E-1,4.186902E0,-5.7892E-1,1.0740542E0,-2.936724E-1,1.5889109E0,8.993987E0,-4.247997E-1,5.8422613E-1,2.8410192E0,-4.1510844E0,1.036691E0,-2.5322974E-1,-6.977166E-1,6.953354E0,3.9384892E0,-5.675061E-1,-1.0576736E0,3.280585E0,-3.9904025E-1,4.1937998E-1,-4.89556E0,1.5751926E0,-6.2036233E0,1.556217E0,-4.0395442E-1,1.3198145E-1,-9.566081E0,5.054532E0,6.152486E0,-5.7892E-1,-5.708865E-1,2.6906755E0,2.5556844E-1,3.1847734E0,-1.9337323E0,-2.8610008E0,-5.6204953E0,-2.7917168E-1,1.2547696E1,2.0149006E1,-2.1169554E-1,-1.8847245E-1,-1.0470105E0,-3.6141172E-1,5.8126026E-1,5.659131E0,3.1049488E0,2.9950461E0,3.9732835E0,5.531924E-1,-1.3399509E0,-2.8035378E0,8.115756E0,-5.850429E0,-3.2524211E0,-7.7015686E0,-6.21467E0,-4.4164567E0,-1.9500351E0,-4.5117874E0,-1.7568461E0,-2.247709E0,1.720328E0,-5.912383E0,-4.1550784E0,5.944382E-1,1.6921234E-1,1.3622363E0,2.3527478E-1,-1.816177E0,-3.081996E0,3.0772522E-1,-1.2655197E0,4.6436763E0,3.075516E-1,-8.021241E-2,1.4753083E0,1.8010162E0,8.661373E0,6.3445845E0,1.5664627E1,1.8485428E0,1.6274488E1,1.1420276E0,9.20599E0,1.2661663E-1,1.6007511E1,-5.5618978E0,3.9608353E-3,-8.599101E0,-5.188646E0,1.656429E1,4.182178E0],"split_indices":[4,1,2,3,4,2,67,0,70,0,1,0,0,0,4,0,0,4,0,1,2,7,0,0,2,0,4,0,107,0,2,2,3,0,0,1,63,6,2,4,94,0,6,4,4,0,4,0,0,0,30,6,3,0,0,0,0,20,0,93,7,2,0,77,45,6,4,0,0,102,5,0,0,7,0,0,7,7,5,0,1,0,4,12,0,0,0,0,0,0,0,0,0,0,0,0,0,0,0,0,0,0,0,0,0,0,0,0,0,0,0,0,0,0,0,0,0,0,0,0,0,0,0,0,0,0,0,0,0],"split_type":[0,0,0,0,0,0,0,0,0,0,0,0,0,0,0,0,0,0,0,0,0,0,0,0,0,0,0,0,0,0,0,0,0,0,0,0,0,0,0,0,0,0,0,0,0,0,0,0,0,0,0,0,0,0,0,0,0,0,0,0,0,0,0,0,0,0,0,0,0,0,0,0,0,0,0,0,0,0,0,0,0,0,0,0,0,0,0,0,0,0,0,0,0,0,0,0,0,0,0,0,0,0,0,0,0,0,0,0,0,0,0,0,0,0,0,0,0,0,0,0,0,0,0,0,0,0,0,0,0],"sum_hessian":[1.981E3,8.18E2,1.163E3,1.07E2,7.11E2,2.82E2,8.81E2,6E0,1.01E2,3.06E2,4.05E2,6.9E1,2.13E2,8.41E2,4E1,8.5E1,1.6E1,2.34E2,7.2E1,2.52E2,1.53E2,4.9E1,2E1,7.6E1,1.37E2,3.7E1,8.04E2,1.4E1,2.6E1,5.2E1,3.3E1,1.67E2,6.7E1,3.9E1,3.3E1,8E1,1.72E2,3.4E1,1.19E2,1.2E1,3.7E1,5.5E1,2.1E1,5.4E1,8.3E1,2E0,3.5E1,7.4E2,6.4E1,4E0,2.2E1,3.7E1,1.5E1,6E0,2.7E1,1.54E2,1.3E1,2.6E1,4.1E1,4E1,4E1,1.61E2,1.1E1,5E0,2.9E1,7.5E1,4.4E1,1E1,2E0,3.4E1,3E0,8E0,1.3E1,3.8E1,1.6E1,6.5E1,1.8E1,1.4E1,2.1E1,4.14E2,3.26E2,2E0,6.2E1,2.1E1,1E0,5E0,3.2E1,3E0,1.2E1,1.5E1,1.2E1,8.4E1,7E1,2.3E1,3E0,3.8E1,2E0,1E0,3.9E1,8.9E1,7.2E1,3E0,2E0,2.7E1,2E0,2E1,5.5E1,4E0,4E1,3.3E1,1E0,1E0,2E0,1E0,3.7E1,2E0,1.6E1,1E0,1.3E1,4E0,1.7E1,3.69E2,4.5E1,1.09E2,2.17E2,3.3E1,2.9E1,2E1,1E0],"tree_param":{"num_deleted":"0","num_feature":"111","num_nodes":"129","size_leaf_vector":"1"}},{"base_weights":[3.985299E-1,5.2262516E1,-1.5107454E1,7.288872E1,-2.0736977E1,-1.9333103E1,1.5843828E2,1.30937605E1,1.0103149E2,-5.5704217E0,1.2024114E1,-4.34846E1,-5.3000665E0,1.781057E2,9.576022E0,8.10946E0,-4.068105E1,8.423218E1,1.8062259E2,9.708124E0,1.8581609E0,-1.7759363E1,-5.3807716E1,9.851742E1,-1.9825764E1,1.8210907E2,3.7009094E0,-3.62323E1,-5.2318873E0,1.5330788E2,6.2137012E1,1.8408006E2,1.9433075E0,1.106761E1,3.4936116E0,-3.8677345E1,1.626576E1,-6.4734184E1,-3.614625E1,6.728199E1,1.0497468E2,-2.7628977E1,3.0828873E1,5.0454407E0,1.853571E1,-3.6819274E0,-1.4567617E0,1.5605186E2,5.921611E0,5.5447247E1,1.1396758E1,1.8864816E2,6.3334627E0,1.184889E1,2.2457771E0,1.4827824E0,9.790123E-1,-4.641775E1,-2.777097E1,2.3396425E1,-1.1034522E0,-7.411762E1,-5.6737648E1,-2.5445122E1,-5.605887E0,6.871366E1,1.789267E0,7.149975E0,1.1454213E2,-2.3283758E1,-8.763215E1,3.6819157E1,-2.2657614E1,1.5861177E1,6.5636086E0,6.3914E0,2.3342206E0,1.9124119E1,4.5056796E0,1.3087252E0,4.5078453E-1,1.9191742E-2,2.8664246E-1,2.6545015E-1,-3.5256196E-2,-4.6852393E0,-1.103891E0,-1.5581111E0,-4.161975E0,1.3017968E0,3.230641E0,1.0248432E0,-3.8724574E-1,-6.1365323E0,-8.643392E0,-4.758745E0,-6.134423E0,-2.2008898E0,-3.7651093E0,7.01912E0,1.8842667E0,1.3337298E1,8.4727E0,-3.886482E0,-2.2869776E-1,-6.7695823E0,-1.1820604E1,2.9605255E0,7.114718E0,-2.719516E0,-6.78373E-1],"categories":[],"categories_nodes":[],"categories_segments":[],"categories_sizes":[],"default_left":[0,0,0,0,0,0,0,0,0,0,0,0,0,0,0,0,0,0,0,0,0,0,0,0,0,0,0,0,0,0,0,0,0,0,0,0,0,0,0,0,0,0,0,0,0,0,0,0,0,0,0,0,0,0,0,0,0,0,0,0,0,0,0,0,0,0,0,0,0,0,0,0,0,0,0,0,0,0,0,0,0,0,0,0,0,0,0,0,0,0,0,0,0,0,0,0,0,0,0,0,0,0,0,0,0,0,0,0,0,0,0],"id":11,"left_children":[1,3,5,7,9,11,13,15,17,-1,19,21,23,25,-1,-1,27,29,31,33,-1,35,37,39,41,43,-1,45,-1,47,49,51,-1,53,55,57,59,61,63,65,67,69,71,-1,-1,-1,-1,73,-1,75,-1,77,-1,79,81,83,-1,85,87,89,91,93,95,97,-1,99,-1,-1,101,103,105,107,109,-1,-1,-1,-1,-1,-1,-1,-1,-1,-1,-1,-1,-1,-1,-1,-1,-1,-1,-1,-1,-1,-1,-1,-1,-1,-1,-1,-1,-1,-1,-1,-1,-1,-1,-1,-1,-1,-1],"loss_changes":[1.6212569E6,7.0015725E5,1.1412121E6,6.078491E5,1.18662984E5,5.1357056E5,2.8555062E4,4.311367E5,3.1370625E5,0E0,6.3970996E2,1.4696388E5,1.4496536E6,8.511625E3,0E0,0E0,1.5214375E3,3.03353E5,1.982975E4,3.161726E2,0E0,1.1521875E5,7.4272125E4,1.6737125E4,3.340634E5,1.7659375E3,0E0,1.1217969E2,0E0,3.41025E3,4.8118062E4,1.066675E4,0E0,2.07729E2,9.9434265E1,7.152922E3,7.7047676E3,1.41033125E4,3.1389047E4,3.9684375E2,2.255625E4,1.88551E5,3.7039344E4,0E0,0E0,0E0,0E0,4.6775E2,0E0,3.68355E4,0E0,5.90425E3,0E0,2.2282129E2,4.5487747E0,1.813994E1,0E0,3.5929688E2,6.7793633E3,3.6482012E3,6.3692175E2,1.1815625E4,2.8133438E3,3.4494688E3,0E0,2.985078E2,0E0,0E0,2.9685125E4,2.2335603E5,2.1864969E4,2.315286E4,6.7985693E2,0E0,0E0,0E0,0E0,0E0,0E0,0E0,0E0,0E0,0E0,0E0,0E0,0E0,0E0,0E0,0E0,0E0,0E0,0E0,0E0,0E0,0E0,0E0,0E0,0E0,0E0,0E0,0E0,0E0,0E0,0E0,0E0,0E0,0E0,0E0,0E0,0E0,0E0],"parents":[2147483647,0,0,1,1,2,2,3,3,4,4,5,5,6,6,7,7,8,8,10,10,11,11,12,12,13,13,16,16,17,17,18,18,19,19,21,21,22,22,23,23,24,24,25,25,27,27,29,29,30,30,31,31,33,33,34,34,35,35,36,36,37,37,38,38,39,39,40,40,41,41,42,42,47,47,49,49,51,51,53,53,54,54,55,55,57,57,58,58,59,59,60,60,61,61,62,62,63,63,65,65,68,68,69,69,70,70,71,71,72,72],"right_children":[2,4,6,8,10,12,14,16,18,-1,20,22,24,26,-1,-1,28,30,32,34,-1,36,38,40,42,44,-1,46,-1,48,50,52,-1,54,56,58,60,62,64,66,68,70,72,-1,-1,-1,-1,74,-1,76,-1,78,-1,80,82,84,-1,86,88,90,92,94,96,98,-1,100,-1,-1,102,104,106,108,110,-1,-1,-1,-1,-1,-1,-1,-1,-1,-1,-1,-1,-1,-1,-1,-1,-1,-1,-1,-1,-1,-1,-1,-1,-1,-1,-1,-1,-1,-1,-1,-1,-1,-1,-1,-1,-1,-1],"split_conditions":[-8.188548E-1,7.3451877E-1,3.6398919E0,-7.7062184E-1,7.674438E-1,-5.2051377E-2,1.3077831E0,-9.3759835E-1,-1.8051518E-2,-5.5704217E0,4.2321876E-1,-5.236847E-1,-8.0276835E-1,8.18815E0,9.576022E0,8.10946E0,-4.247997E-1,-7.235862E-1,1.9637773E0,4.208916E-2,1.8581609E0,-5.3309184E-1,7.4157417E-1,-1.4559656E0,1.9572577E0,-4.0395442E-1,3.7009094E0,5.677696E0,-5.2318873E0,3.400636E0,7.04582E-1,3.9504914E0,1.9433075E0,1.6459134E0,1.4558629E0,4.270077E0,-4.434436E-1,-3.6141172E-1,1.4870892E0,2.3636541E0,-5.07656E-1,2.9232013E0,6.265463E-1,5.0454407E0,1.853571E1,-3.6819274E0,-1.4567617E0,3.3874288E0,5.921611E0,1.5677516E-1,1.1396758E1,3.5151389E0,6.3334627E0,-3.8258424E-3,-7.424417E-2,5.054532E0,9.790123E-1,2.324183E0,-3.850555E-1,-5.6665456E-1,-1.6346848E0,-5.0496924E-1,-1.803245E-1,-3.8041288E-1,-5.605887E0,2.99403E0,1.789267E0,7.149975E0,1.036691E0,4.92918E-1,-6.176275E-1,5.7210517E0,-2.0439377E-2,1.5861177E1,6.5636086E0,6.3914E0,2.3342206E0,1.9124119E1,4.5056796E0,1.3087252E0,4.5078453E-1,1.9191742E-2,2.8664246E-1,2.6545015E-1,-3.5256196E-2,-4.6852393E0,-1.103891E0,-1.5581111E0,-4.161975E0,1.3017968E0,3.230641E0,1.0248432E0,-3.8724574E-1,-6.1365323E0,-8.643392E0,-4.758745E0,-6.134423E0,-2.2008898E0,-3.7651093E0,7.01912E0,1.8842667E0,1.3337298E1,8.4727E0,-3.886482E0,-2.2869776E-1,-6.7695823E0,-1.1820604E1,2.9605255E0,7.114718E0,-2.719516E0,-6.78373E-1],"split_indices":[2,0,67,0,0,2,4,0,0,0,6,0,1,35,0,0,6,0,78,5,0,0,0,1,1,7,0,29,0,4,6,25,0,58,20,28,4,0,0,24,4,40,4,0,0,0,0,6,0,4,0,5,0,7,7,77,0,20,6,4,109,6,0,4,0,104,0,0,4,1,4,83,7,0,0,0,0,0,0,0,0,0,0,0,0,0,0,0,0,0,0,0,0,0,0,0,0,0,0,0,0,0,0,0,0,0,0,0,0,0,0],"split_type":[0,0,0,0,0,0,0,0,0,0,0,0,0,0,0,0,0,0,0,0,0,0,0,0,0,0,0,0,0,0,0,0,0,0,0,0,0,0,0,0,0,0,0,0,0,0,0,0,0,0,0,0,0,0,0,0,0,0,0,0,0,0,0,0,0,0,0,0,0,0,0,0,0,0,0,0,0,0,0,0,0,0,0,0,0,0,0,0,0,0,0,0,0,0,0,0,0,0,0,0,0,0,0,0,0,0,0,0,0,0,0],"sum_hessian":[2.014E3,4.63E2,1.551E3,3.61E2,1.02E2,1.515E3,3.6E1,1.16E2,2.45E2,4.9E1,5.3E1,5.56E2,9.59E2,2.6E1,1E1,5.1E1,6.5E1,2.04E2,4.1E1,4.1E1,1.2E1,1.6E2,3.96E2,1.17E2,8.42E2,2.5E1,1E0,5E1,1.5E1,4.8E1,1.56E2,4E1,1E0,3.3E1,8E0,9.9E1,6.1E1,2.43E2,1.53E2,2.2E1,9.5E1,7.3E2,1.12E2,1E0,2.4E1,4.8E1,2E0,4.6E1,2E0,1.4E2,1.6E1,3.8E1,2E0,3E1,3E0,7E0,1E0,5.6E1,4.3E1,4.3E1,1.8E1,1.08E2,1.35E2,1.01E2,5.2E1,2.1E1,1E0,2.3E1,7.2E1,6.82E2,4.8E1,1.01E2,1.1E1,4.4E1,2E0,1.1E2,3E1,3.7E1,1E0,2.5E1,5E0,1E0,2E0,4E0,3E0,5.5E1,1E0,2.4E1,1.9E1,2.1E1,2.2E1,3E0,1.5E1,5.6E1,5.2E1,4.9E1,8.6E1,8.1E1,2E1,2E1,1E0,4.2E1,3E1,3.91E2,2.91E2,3.1E1,1.7E1,8.5E1,1.6E1,8E0,3E0],"tree_param":{"num_deleted":"0","num_feature":"111","num_nodes":"111","size_leaf_vector":"1"}},{"base_weights":[9.296147E-1,4.962778E1,-1.3462553E1,6.848494E1,-1.889242E1,-1.7629648E1,1.481406E2,5.501797E1,1.639252E2,-5.0330405E0,1.1122515E1,-4.0087128E1,-3.908058E0,1.9329483E1,1.1639236E2,1.3896156E2,3.8088184E1,1.8311323E1,1.21549995E2,9.560093E0,1.7698792E1,-1.798565E1,-4.8979862E1,8.7441154E1,-1.7654882E1,5.748507E0,1.24489815E2,5.6294436E0,1.4105849E2,4.9023827E1,-3.704996E1,6.515571E1,1.3961797E1,1.2149661E1,6.5548687E0,1.8724526E0,4.74646E-1,-3.7320496E1,1.54452915E1,-5.893643E1,-3.2882217E1,9.837339E1,6.82543E1,-2.4486475E1,2.8685091E1,1.2770567E2,2.8478334E0,1.1884038E1,1.6030043E2,5.6611324E1,-3.6131108E0,-2.3715312E0,-4.143521E0,-1.4145905E0,8.384521E1,1.2768073E1,-7.277069E-2,9.224051E0,3.339447E0,-4.522727E1,-2.8262012E1,2.0601152E1,-5.9696455E0,-6.8192696E1,-5.119928E1,-2.2774025E1,-4.968658E0,6.287788E0,1.1119524E2,2.3270285E1,7.646411E1,-2.520539E1,2.4980177E1,3.3995895E1,-1.6634329E1,1.3931801E1,7.5455194E0,1.6967398E1,6.8670897E0,5.001818E0,9.626109E0,2.3237367E0,9.318783E0,1.3754466E0,1.9361064E-1,1.0469333E0,1.9984284E-1,1.2535249E-1,9.179372E-1,-4.713397E0,-3.0032957E0,-2.0507147E0,-3.910242E0,1.1712765E0,2.6432598E0,4.5029297E-1,-8.283108E-1,-5.657677E0,-7.9213176E0,-4.1936936E0,-5.567992E0,-1.9732296E0,-3.3076198E0,1.1435022E1,1.7340384E0,-1.6184571E-1,4.350497E0,8.046801E0,-1.0745138E-1,-2.6655104E0,1.08781805E1,3.7784104E0,-2.0107374E0,2.1146383E0,-2.630511E0],"categories":[],"categories_nodes":[],"categories_segments":[],"categories_sizes":[],"default_left":[0,0,0,0,0,0,0,0,0,0,0,0,0,0,0,0,0,0,0,0,0,0,0,0,0,0,0,0,0,0,0,0,0,0,0,0,0,0,0,0,0,0,0,0,0,0,0,0,0,0,0,0,0,0,0,0,0,0,0,0,0,0,0,0,0,0,0,0,0,0,0,0,0,0,0,0,0,0,0,0,0,0,0,0,0,0,0,0,0,0,0,0,0,0,0,0,0,0,0,0,0,0,0,0,0,0,0,0,0,0,0,0,0,0,0],"id":12,"left_children":[1,3,5,7,9,11,13,15,17,-1,19,21,23,-1,25,27,29,-1,31,33,35,37,39,41,43,-1,45,-1,47,49,51,53,-1,55,57,-1,-1,59,61,63,65,67,69,71,73,75,-1,-1,77,79,-1,-1,-1,-1,81,83,-1,85,87,89,91,93,95,97,99,101,-1,-1,103,105,107,109,-1,111,113,-1,-1,-1,-1,-1,-1,-1,-1,-1,-1,-1,-1,-1,-1,-1,-1,-1,-1,-1,-1,-1,-1,-1,-1,-1,-1,-1,-1,-1,-1,-1,-1,-1,-1,-1,-1,-1,-1,-1,-1],"loss_changes":[1.4409604E6,6.072871E5,1.0713224E6,4.63968E5,9.680792E4,4.768631E5,3.4844625E4,4.5515888E5,1.4332E4,0E0,3.7536914E2,1.14489625E5,1.2095865E6,0E0,5.2456875E3,1.419875E3,2.2449266E5,0E0,8.224891E3,2.7056104E2,3.0695557E1,1.1046141E5,6.5058E4,1.971475E4,2.656763E5,0E0,3.155875E3,0E0,3.180875E3,1.5517419E5,1.0640039E3,1.0078713E4,0E0,1.9245215E2,1.6659534E2,0E0,0E0,6.4571094E3,7.078966E3,1.49141875E4,2.6386047E4,2.85075E4,1.6316844E4,1.5024528E5,2.655921E4,2.2294375E3,0E0,0E0,9.8205625E3,5.2174E4,0E0,0E0,0E0,0E0,6.657422E2,2.0843018E2,0E0,8.705304E1,1.3467297E2,2.0679688E2,3.6536133E3,2.3338398E3,3.5226096E2,1.0111875E4,3.641125E3,2.5749844E3,0E0,0E0,1.45993125E4,4.6029526E3,1.2815203E4,1.445026E5,0E0,2.0640336E4,4.9406855E3,0E0,0E0,0E0,0E0,0E0,0E0,0E0,0E0,0E0,0E0,0E0,0E0,0E0,0E0,0E0,0E0,0E0,0E0,0E0,0E0,0E0,0E0,0E0,0E0,0E0,0E0,0E0,0E0,0E0,0E0,0E0,0E0,0E0,0E0,0E0,0E0,0E0,0E0,0E0,0E0],"parents":[2147483647,0,0,1,1,2,2,3,3,4,4,5,5,6,6,7,7,8,8,10,10,11,11,12,12,14,14,15,15,16,16,18,18,19,19,20,20,21,21,22,22,23,23,24,24,26,26,28,28,29,29,30,30,31,31,33,33,34,34,37,37,38,38,39,39,40,40,41,41,42,42,43,43,44,44,45,45,48,48,49,49,54,54,55,55,57,57,58,58,59,59,60,60,61,61,62,62,63,63,64,64,65,65,68,68,69,69,70,70,71,71,73,73,74,74],"right_children":[2,4,6,8,10,12,14,16,18,-1,20,22,24,-1,26,28,30,-1,32,34,36,38,40,42,44,-1,46,-1,48,50,52,54,-1,56,58,-1,-1,60,62,64,66,68,70,72,74,76,-1,-1,78,80,-1,-1,-1,-1,82,84,-1,86,88,90,92,94,96,98,100,102,-1,-1,104,106,108,110,-1,112,114,-1,-1,-1,-1,-1,-1,-1,-1,-1,-1,-1,-1,-1,-1,-1,-1,-1,-1,-1,-1,-1,-1,-1,-1,-1,-1,-1,-1,-1,-1,-1,-1,-1,-1,-1,-1,-1,-1,-1,-1],"split_conditions":[-8.188548E-1,7.3451877E-1,3.6398919E0,-1.8051518E-2,7.674438E-1,-5.2051377E-2,9.159149E-2,-1.4181759E0,5.375593E-1,-5.0330405E0,5.1676524E-1,-5.236847E-1,-8.0276835E-1,1.9329483E1,-1.1097666E0,-2.000467E0,3.207583E0,1.8311323E1,2.57489E0,-5.303125E-1,9.209639E-1,-5.3309184E-1,7.4157417E-1,1.036691E0,1.9572577E0,5.748507E0,3.9384892E0,5.6294436E0,1.0318278E-1,4.7339067E0,-1.0949783E0,-1.1170392E0,1.3961797E1,2.8732955E0,5.950698E0,1.8724526E0,4.74646E-1,-5.3105545E-1,1.4223186E0,-3.6141172E-1,1.4870892E0,-5.07656E-1,-8.7217055E-2,2.8815634E0,2.8178463E0,1.4223186E0,2.8478334E0,1.1884038E1,3.3874288E0,1.3077831E0,-3.6131108E0,-2.3715312E0,-4.143521E0,-1.4145905E0,-9.056497E-2,-1.6070608E-2,-7.277069E-2,4.208916E-2,1.0825828E0,5.6445175E-1,1.976335E-1,-5.63829E-1,-1.6346848E0,-5.0496924E-1,-1.803245E-1,-3.8041288E-1,-4.968658E0,6.287788E0,7.102303E-2,-2.548508E-1,2.5544333E0,6.296666E0,2.4980177E1,6.265463E-1,-2.1907839E-1,1.3931801E1,7.5455194E0,1.6967398E1,6.8670897E0,5.001818E0,9.626109E0,2.3237367E0,9.318783E0,1.3754466E0,1.9361064E-1,1.0469333E0,1.9984284E-1,1.2535249E-1,9.179372E-1,-4.713397E0,-3.0032957E0,-2.0507147E0,-3.910242E0,1.1712765E0,2.6432598E0,4.5029297E-1,-8.283108E-1,-5.657677E0,-7.9213176E0,-4.1936936E0,-5.567992E0,-1.9732296E0,-3.3076198E0,1.1435022E1,1.7340384E0,-1.6184571E-1,4.350497E0,8.046801E0,-1.0745138E-1,-2.6655104E0,1.08781805E1,3.7784104E0,-2.0107374E0,2.1146383E0,-2.630511E0],"split_indices":[2,0,67,0,0,2,4,3,4,0,6,0,1,0,107,108,88,0,6,4,5,0,0,4,1,0,30,0,4,84,107,107,0,30,77,0,0,4,4,0,0,4,7,100,104,4,0,0,6,4,0,0,0,0,5,7,0,5,94,49,4,4,109,6,0,4,0,0,7,5,78,56,0,4,4,0,0,0,0,0,0,0,0,0,0,0,0,0,0,0,0,0,0,0,0,0,0,0,0,0,0,0,0,0,0,0,0,0,0,0,0,0,0,0,0],"split_type":[0,0,0,0,0,0,0,0,0,0,0,0,0,0,0,0,0,0,0,0,0,0,0,0,0,0,0,0,0,0,0,0,0,0,0,0,0,0,0,0,0,0,0,0,0,0,0,0,0,0,0,0,0,0,0,0,0,0,0,0,0,0,0,0,0,0,0,0,0,0,0,0,0,0,0,0,0,0,0,0,0,0,0,0,0,0,0,0,0,0,0,0,0,0,0,0,0,0,0,0,0,0,0,0,0,0,0,0,0,0,0,0,0,0,0],"sum_hessian":[2.054E3,4.68E2,1.586E3,3.67E2,1.01E2,1.547E3,3.9E1,3.23E2,4.4E1,4.9E1,5.2E1,5.86E2,9.61E2,1.4E1,2.5E1,5.3E1,2.7E2,2.8E1,1.6E1,4.4E1,8E0,1.69E2,4.17E2,1.25E2,8.36E2,4E0,2.1E1,2E0,5.1E1,2.36E2,3.4E1,5E0,1.1E1,2.2E1,2.2E1,7E0,1E0,1.07E2,6.2E1,2.56E2,1.61E2,7.7E1,4.8E1,7.29E2,1.07E2,2E1,1E0,2.7E1,2.4E1,2.17E2,1.9E1,1E1,2.4E1,1E0,4E0,2.1E1,1E0,1.1E1,1.1E1,5.5E1,5.2E1,5E1,1.2E1,1.13E2,1.43E2,1.02E2,5.9E1,2.2E1,5.5E1,8E0,4E1,7.28E2,1E0,9.6E1,1.1E1,1.5E1,5E0,2.1E1,3E0,1.88E2,2.9E1,1E0,3E0,1.9E1,2E0,9E0,2E0,9E0,2E0,4.7E1,8E0,3.2E1,2E1,2.1E1,2.9E1,2E0,1E1,5.8E1,5.5E1,5E1,9.3E1,8.1E1,2.1E1,5.3E1,2E0,4E0,4E0,3.8E1,2E0,7.21E2,7E0,9E1,6E0,2E0,9E0],"tree_param":{"num_deleted":"0","num_feature":"111","num_nodes":"115","size_leaf_vector":"1"}},{"base_weights":[1.1296388E0,4.617635E1,-1.2269594E1,6.3751587E1,-1.8435036E1,-1.572736E1,1.3454599E2,5.1815357E1,1.5192953E2,-4.5793014E0,9.838802E0,-3.2507328E1,1.321097E-1,1.454784E2,7.8097825E0,1.300017E2,3.7695553E1,1.7150156E1,1.11907524E2,8.071711E0,1.6992028E0,-3.7178505E1,2.314081E1,8.137507E1,-1.5231736E1,1.4836801E2,3.2284393E0,1.3251303E2,4.7323527E0,5.9663136E1,5.6742153E0,1.2305666E2,4.490865E0,1.1675747E1,4.586822E0,-1.425346E1,-4.420848E1,3.238969E1,7.883165E-1,7.706508E1,1.2836328E2,-2.2417772E0,-4.1083954E1,4.096579E0,1.5082863E1,1.1109485E1,1.5180211E2,7.433612E1,2.2960436E1,-3.3514835E1,4.616155E1,1.4264374E2,5.9271168E1,1.2400838E1,-1.0504913E-1,5.5653462E0,-4.8934937E-2,-3.1821068E1,1.24523735E1,-5.1266594E1,-2.2253723E1,2.496652E1,4.8248474E1,4.9645205E0,-1.5069527E1,4.1663003E0,7.829665E1,1.375677E1,2.7363968E0,-1.6126125E1,6.258058E1,-1.774666E1,-6.62353E1,1.6286924E1,8.159999E0,6.807772E0,9.338145E0,2.616096E0,3.6876985E-1,-2.3518538E0,-3.7425206E0,6.1996226E0,2.5506303E0,1.5503527E1,6.205178E0,-1.3438599E0,8.080826E0,1.3166587E0,-6.913223E-2,3.281609E-1,9.0115225E-1,-1.3112436E-1,1.2296855E-1,-3.9585044E0,-2.4191682E0,1.8479542E0,-3.1123242E-1,-5.809889E0,-3.3915958E0,-1.5907632E0,-4.457685E0,2.9315536E0,-2.641669E-1,1.2944031E-1,5.2399354E0,6.0372925E-3,1.231068E0,-2.5707093E-1,-1.8378897E0,5.174988E-1,1.0744629E-1,5.7847824E0,8.421298E0,-3.6178994E0,-7.185225E-1,9.145821E-1,2.6906866E1,-1.3579154E0,-3.9682024E0,-5.2782717E0,-9.317068E0],"categories":[],"categories_nodes":[],"categories_segments":[],"categories_sizes":[],"default_left":[0,0,0,0,0,0,0,0,0,0,0,0,0,0,0,0,0,0,0,0,0,0,0,0,0,0,0,0,0,0,0,0,0,0,0,0,0,0,0,0,0,0,0,0,0,0,0,0,0,0,0,0,0,0,0,0,0,0,0,0,0,0,0,0,0,0,0,0,0,0,0,0,0,0,0,0,0,0,0,0,0,0,0,0,0,0,0,0,0,0,0,0,0,0,0,0,0,0,0,0,0,0,0,0,0,0,0,0,0,0,0,0,0,0,0,0,0,0,0,0,0],"id":13,"left_children":[1,3,5,7,9,11,13,15,17,-1,19,21,23,25,-1,27,29,-1,31,33,-1,35,37,39,41,43,-1,45,-1,47,49,51,-1,53,55,57,59,61,63,65,67,69,71,-1,-1,-1,73,75,77,79,81,83,85,87,-1,89,91,93,95,97,99,101,103,105,107,109,111,-1,-1,113,115,117,119,-1,-1,-1,-1,-1,-1,-1,-1,-1,-1,-1,-1,-1,-1,-1,-1,-1,-1,-1,-1,-1,-1,-1,-1,-1,-1,-1,-1,-1,-1,-1,-1,-1,-1,-1,-1,-1,-1,-1,-1,-1,-1,-1,-1,-1,-1,-1,-1],"loss_changes":[1.221632E6,5.2807525E5,7.94056E5,3.7629475E5,7.780205E4,4.0583938E5,1.08545E4,3.5168362E5,1.44900625E4,0E0,4.9486572E2,1.9347756E5,9.8107994E5,4.695625E3,0E0,3.9029375E3,1.9310506E5,0E0,7.1723594E3,4.7395142E2,0E0,1.0960506E5,1.1965129E4,1.54225E4,2.2188445E5,1.220875E3,0E0,2.5530625E3,0E0,8.6075E4,1.8083969E5,9.036531E3,0E0,1.9758057E2,1.0460492E2,7.639978E4,7.9902875E4,3.6220234E3,1.2668735E3,1.01780625E4,4.602375E3,3.9791628E5,1.28543625E5,0E0,0E0,0E0,3.8024688E3,7.46925E3,2.8643027E3,1.3869883E3,1.673457E4,3.6635938E2,8.915734E3,1.9958301E2,0E0,1.19960754E2,9.682487E0,4.8473438E3,6.1552324E3,4.4854625E4,1.7565625E4,3.679496E3,2.2709824E3,5.3965643E2,1.18206055E2,3.795761E0,9.041375E3,0E0,0E0,6.5001844E4,8.581633E5,1.0065379E4,3.3491312E4,0E0,0E0,0E0,0E0,0E0,0E0,0E0,0E0,0E0,0E0,0E0,0E0,0E0,0E0,0E0,0E0,0E0,0E0,0E0,0E0,0E0,0E0,0E0,0E0,0E0,0E0,0E0,0E0,0E0,0E0,0E0,0E0,0E0,0E0,0E0,0E0,0E0,0E0,0E0,0E0,0E0,0E0,0E0,0E0,0E0,0E0,0E0,0E0],"parents":[2147483647,0,0,1,1,2,2,3,3,4,4,5,5,6,6,7,7,8,8,10,10,11,11,12,12,13,13,15,15,16,16,18,18,19,19,21,21,22,22,23,23,24,24,25,25,27,27,29,29,30,30,31,31,33,33,34,34,35,35,36,36,37,37,38,38,39,39,40,40,41,41,42,42,46,46,47,47,48,48,49,49,50,50,51,51,52,52,53,53,55,55,56,56,57,57,58,58,59,59,60,60,61,61,62,62,63,63,64,64,65,65,66,66,69,69,70,70,71,71,72,72],"right_children":[2,4,6,8,10,12,14,16,18,-1,20,22,24,26,-1,28,30,-1,32,34,-1,36,38,40,42,44,-1,46,-1,48,50,52,-1,54,56,58,60,62,64,66,68,70,72,-1,-1,-1,74,76,78,80,82,84,86,88,-1,90,92,94,96,98,100,102,104,106,108,110,112,-1,-1,114,116,118,120,-1,-1,-1,-1,-1,-1,-1,-1,-1,-1,-1,-1,-1,-1,-1,-1,-1,-1,-1,-1,-1,-1,-1,-1,-1,-1,-1,-1,-1,-1,-1,-1,-1,-1,-1,-1,-1,-1,-1,-1,-1,-1,-1,-1,-1,-1,-1,-1],"split_conditions":[-8.188548E-1,7.3451877E-1,3.6398919E0,-1.8051518E-2,7.674438E-1,1.3198145E-1,1.4223186E0,-1.4181759E0,3.20302E-1,-4.5793014E0,5.1676524E-1,1.2585509E0,-8.0276835E-1,5.70249E0,7.8097825E0,3.400636E0,-1.0379416E0,1.7150156E1,1.6247988E0,-5.278547E-1,1.6992028E0,-5.236847E-1,-1.2157899E-1,5.9610186E0,1.5385181E0,-4.0395442E-1,3.2284393E0,2.0806324E-1,4.7323527E0,-4.5313123E-1,-7.7062184E-1,-3.217761E-1,4.490865E0,1.9884236E-1,-9.056497E-2,-5.3309184E-1,2.0647496E-1,-1.9311514E-1,9.098676E-1,-1.8847245E-1,1.4813523E0,-3.7825704E-2,-5.519061E-1,4.096579E0,1.5082863E1,1.1109485E1,2.9982014E0,2.0100408E0,3.4669984E-2,-1.0901437E0,-3.2288575E-1,1.837048E0,2.5809603E0,2.8732955E0,-1.0504913E-1,-1.2534457E-1,3.3636424E-1,-5.3105545E-1,-4.434436E-1,7.4157417E-1,3.7866004E0,-2.0642422E-1,-2.0064385E-1,-8.08138E-3,1.0318278E-1,9.461254E-1,-1.4559656E0,1.375677E1,2.7363968E0,6.139722E-1,8.359855E-1,4.4329217E-1,-5.8469784E-1,1.6286924E1,8.159999E0,6.807772E0,9.338145E0,2.616096E0,3.6876985E-1,-2.3518538E0,-3.7425206E0,6.1996226E0,2.5506303E0,1.5503527E1,6.205178E0,-1.3438599E0,8.080826E0,1.3166587E0,-6.913223E-2,3.281609E-1,9.0115225E-1,-1.3112436E-1,1.2296855E-1,-3.9585044E0,-2.4191682E0,1.8479542E0,-3.1123242E-1,-5.809889E0,-3.3915958E0,-1.5907632E0,-4.457685E0,2.9315536E0,-2.641669E-1,1.2944031E-1,5.2399354E0,6.0372925E-3,1.231068E0,-2.5707093E-1,-1.8378897E0,5.174988E-1,1.0744629E-1,5.7847824E0,8.421298E0,-3.6178994E0,-7.185225E-1,9.145821E-1,2.6906866E1,-1.3579154E0,-3.9682024E0,-5.2782717E0,-9.317068E0],"split_indices":[2,0,67,0,0,2,4,3,4,0,6,1,1,35,0,4,2,0,108,4,0,0,4,17,2,7,0,6,0,0,0,110,0,5,5,0,1,6,79,7,5,6,0,0,0,0,4,6,7,107,4,49,4,30,0,6,5,4,4,0,44,4,4,7,4,4,1,0,0,2,108,4,4,0,0,0,0,0,0,0,0,0,0,0,0,0,0,0,0,0,0,0,0,0,0,0,0,0,0,0,0,0,0,0,0,0,0,0,0,0,0,0,0,0,0,0,0,0,0,0,0],"split_type":[0,0,0,0,0,0,0,0,0,0,0,0,0,0,0,0,0,0,0,0,0,0,0,0,0,0,0,0,0,0,0,0,0,0,0,0,0,0,0,0,0,0,0,0,0,0,0,0,0,0,0,0,0,0,0,0,0,0,0,0,0,0,0,0,0,0,0,0,0,0,0,0,0,0,0,0,0,0,0,0,0,0,0,0,0,0,0,0,0,0,0,0,0,0,0,0,0,0,0,0,0,0,0,0,0,0,0,0,0,0,0,0,0,0,0,0,0,0,0,0,0],"sum_hessian":[2.022E3,4.63E2,1.559E3,3.64E2,9.9E1,1.524E3,3.5E1,3.22E2,4.2E1,5E1,4.9E1,7.4E2,7.84E2,2.8E1,7E0,4.8E1,2.74E2,2.6E1,1.6E1,4.1E1,8E0,6.83E2,5.7E1,1.24E2,6.6E2,2.7E1,1E0,4.6E1,2E0,1.62E2,1.12E2,1.3E1,3E0,1.9E1,2.2E1,1.61E2,5.22E2,4E1,1.7E1,1.16E2,8E0,4.4E2,2.2E2,1E0,2.6E1,2.5E1,2.1E1,1.15E2,4.7E1,5.7E1,5.5E1,9E0,4E0,1.8E1,1E0,1.8E1,4E0,9.7E1,6.4E1,3.94E2,1.28E2,2.9E1,1.1E1,1.4E1,3E0,2E0,1.14E2,7E0,1E0,3.63E2,7.7E1,1.15E2,1.05E2,1.7E1,4E0,9E1,2.5E1,4E1,7E0,1.8E1,3.9E1,3E1,2.5E1,7E0,2E0,1E0,3E0,1.7E1,1E0,1.2E1,6E0,2E0,2E0,4.6E1,5.1E1,4.6E1,1.8E1,2.81E2,1.13E2,1.01E2,2.7E1,2.5E1,4E0,1E0,1E1,9E0,5E0,1E0,2E0,1E0,1E0,2.8E1,8.6E1,1.11E2,2.52E2,6.2E1,1.5E1,9.8E1,1.7E1,7.2E1,3.3E1],"tree_param":{"num_deleted":"0","num_feature":"111","num_nodes":"121","size_leaf_vector":"1"}},{"base_weights":[-4.4277963E-1,3.7006344E1,-1.1791449E1,5.1586906E1,-1.4381442E1,-1.4996795E1,1.22626396E2,6.0561886E1,-2.9369314E1,-4.085746E0,8.166454E0,-2.9685837E1,-1.2501707E0,1.6196693E1,9.022938E1,5.1101295E1,1.29357E2,-1.8717905E0,-3.2621026E0,-2.1884258E-1,8.582785E0,-3.6222675E1,5.1138816E0,7.0499916E1,-1.3782942E1,9.538449E1,2.5785532E0,1.0818147E2,3.989691E1,1.4803648E2,8.96007E1,7.5323286E0,1.3114858E1,-2.4773043E1,-5.252642E1,-5.9876165E0,1.6709953E1,-6.510582E0,7.260206E1,-3.0258262E0,-3.670365E1,9.786865E1,2.4092698E0,1.0959002E2,2.1694305E0,4.489129E1,-2.9433388E1,1.5152736E1,3.2127748E0,1.5249838E0,1.030335E1,8.417172E0,3.4166915E0,1.383933E0,3.659546E-1,-5.525676E1,-1.8894917E1,-6.30927E1,-4.389696E1,-1.6881287E1,2.7818811E1,2.5981846E1,-3.2013004E0,2.0092571E-1,-1.603505E0,2.3681255E1,7.560927E1,-1.4378945E1,5.2599518E1,-1.4820084E1,-6.0158283E1,1.0027636E1,2.7265015E0,1.1084307E1,2.660138E0,3.8816102E0,7.8413935E0,-3.384941E0,-1.5695776E0,1.5054139E0,-1.2766663E0,5.713005E-2,9.073353E-1,8.975703E-1,9.049759E-2,-4.0760036E0,-7.4095454E0,-2.529214E0,-5.8657665E-2,-5.428604E0,-7.9238825E0,-3.92092E0,-5.173826E0,-2.287627E0,2.010849E-1,3.4052467E0,2.163147E-1,2.8268049E0,-1.0875244E0,4.9514744E-1,-1.2810103E0,-7.3307115E-1,4.375458E0,4.9608455E0,8.221663E0,-3.1973073E0,-7.0106786E-1,1.430184E0,2.5885345E1,-9.136662E-1,-2.919225E0,-4.7003727E0,-8.399691E0],"categories":[],"categories_nodes":[],"categories_segments":[],"categories_sizes":[],"default_left":[0,0,0,0,0,0,0,0,0,0,0,0,0,0,0,0,0,0,0,0,0,0,0,0,0,0,0,0,0,0,0,0,0,0,0,0,0,0,0,0,0,0,0,0,0,0,0,0,0,0,0,0,0,0,0,0,0,0,0,0,0,0,0,0,0,0,0,0,0,0,0,0,0,0,0,0,0,0,0,0,0,0,0,0,0,0,0,0,0,0,0,0,0,0,0,0,0,0,0,0,0,0,0,0,0,0,0,0,0,0,0,0,0],"id":14,"left_children":[1,3,5,7,9,11,13,15,17,-1,19,21,23,-1,25,27,29,-1,-1,-1,31,33,35,37,39,41,-1,43,45,47,49,51,53,55,57,59,61,63,65,67,69,71,-1,73,-1,75,77,-1,-1,79,-1,81,83,-1,-1,85,87,89,91,93,95,97,99,-1,-1,101,103,105,107,109,111,-1,-1,-1,-1,-1,-1,-1,-1,-1,-1,-1,-1,-1,-1,-1,-1,-1,-1,-1,-1,-1,-1,-1,-1,-1,-1,-1,-1,-1,-1,-1,-1,-1,-1,-1,-1,-1,-1,-1,-1,-1,-1],"loss_changes":[8.5340675E5,3.5064756E5,6.657876E5,2.66254E5,6.2419414E4,3.0406156E5,3.1268375E4,2.0686588E5,6.7091016E2,0E0,2.6451294E2,1.6579075E5,7.014699E5,0E0,4.849203E3,1.8115288E5,1.569825E4,0E0,0E0,0E0,1.6305542E2,1.1312869E5,1.503317E4,1.9251625E4,1.6360525E5,1.1840938E3,0E0,3.348125E3,8.580919E4,5.2473125E3,1.7589438E4,1.4240088E2,1.1005127E1,6.382167E4,2.0208062E4,2.2566184E4,1.0606232E4,3.568062E2,1.48335E4,2.868354E5,1.0792194E5,4.958125E2,0E0,1.8349375E3,0E0,4.3389875E4,5.0002344E2,0E0,0E0,7.7225275E2,0E0,1.904519E2,1.3150378E2,0E0,0E0,1.2819625E4,3.570754E4,1.1481906E4,3.1910625E3,5.255866E3,2.3252666E3,3.593666E3,1.5518585E3,0E0,0E0,5.3008574E3,1.41318125E4,4.8649453E4,6.045245E5,8.800102E3,2.8037594E4,0E0,0E0,0E0,0E0,0E0,0E0,0E0,0E0,0E0,0E0,0E0,0E0,0E0,0E0,0E0,0E0,0E0,0E0,0E0,0E0,0E0,0E0,0E0,0E0,0E0,0E0,0E0,0E0,0E0,0E0,0E0,0E0,0E0,0E0,0E0,0E0,0E0,0E0,0E0,0E0,0E0,0E0],"parents":[2147483647,0,0,1,1,2,2,3,3,4,4,5,5,6,6,7,7,8,8,10,10,11,11,12,12,14,14,15,15,16,16,20,20,21,21,22,22,23,23,24,24,25,25,27,27,28,28,29,29,30,30,31,31,32,32,33,33,34,34,35,35,36,36,37,37,38,38,39,39,40,40,41,41,43,43,45,45,46,46,49,49,51,51,52,52,55,55,56,56,57,57,58,58,59,59,60,60,61,61,62,62,65,65,66,66,67,67,68,68,69,69,70,70],"right_children":[2,4,6,8,10,12,14,16,18,-1,20,22,24,-1,26,28,30,-1,-1,-1,32,34,36,38,40,42,-1,44,46,48,50,52,54,56,58,60,62,64,66,68,70,72,-1,74,-1,76,78,-1,-1,80,-1,82,84,-1,-1,86,88,90,92,94,96,98,100,-1,-1,102,104,106,108,110,112,-1,-1,-1,-1,-1,-1,-1,-1,-1,-1,-1,-1,-1,-1,-1,-1,-1,-1,-1,-1,-1,-1,-1,-1,-1,-1,-1,-1,-1,-1,-1,-1,-1,-1,-1,-1,-1,-1,-1,-1,-1,-1],"split_conditions":[-8.188548E-1,7.3451877E-1,3.6398919E0,3.207583E0,7.674438E-1,1.3198145E-1,9.159149E-2,-1.8051518E-2,-1.0901437E0,-4.085746E0,-2.1612031E0,5.8126026E-1,-8.0276835E-1,1.6196693E1,1.7525606E0,-1.4181759E0,1.5853946E0,-1.8717905E0,-3.2621026E0,-2.1884258E-1,5.1676524E-1,-4.2449877E-1,-1.779727E-1,-1.7849561E0,1.5385181E0,3.820052E0,2.5785532E0,7.304128E0,4.795465E0,5.920369E-1,2.5809603E0,1.9884236E-1,6.0812134E-1,-1.2926663E0,4.1937998E-1,-6.6434043E-3,-1.4523642E-1,1.6249039E0,-1.2794375E-1,-3.7825704E-2,-5.519061E-1,2.9950461E0,2.4092698E0,4.5289845E0,2.1694305E0,7.212835E-1,8.8468275E0,1.5152736E1,3.2127748E0,1.9929847E0,1.030335E1,-8.6253816E-1,-1.1222484E0,1.383933E0,3.659546E-1,-3.6832586E-1,4.5220953E-1,-5.729378E-1,-6.0435194E-1,1.4174099E0,6.682427E0,2.6333814E0,1.5230107E-1,2.0092571E-1,-1.603505E0,-9.352466E-1,-5.115182E-1,6.139722E-1,8.359855E-1,-2.1907839E-1,-5.8469784E-1,1.0027636E1,2.7265015E0,1.1084307E1,2.660138E0,3.8816102E0,7.8413935E0,-3.384941E0,-1.5695776E0,1.5054139E0,-1.2766663E0,5.713005E-2,9.073353E-1,8.975703E-1,9.049759E-2,-4.0760036E0,-7.4095454E0,-2.529214E0,-5.8657665E-2,-5.428604E0,-7.9238825E0,-3.92092E0,-5.173826E0,-2.287627E0,2.010849E-1,3.4052467E0,2.163147E-1,2.8268049E0,-1.0875244E0,4.9514744E-1,-1.2810103E0,-7.3307115E-1,4.375458E0,4.9608455E0,8.221663E0,-3.1973073E0,-7.0106786E-1,1.430184E0,2.5885345E1,-9.136662E-1,-2.919225E0,-4.7003727E0,-8.399691E0],"split_indices":[2,0,67,88,0,2,4,0,107,0,5,1,1,0,58,3,4,0,0,0,6,2,0,5,2,32,0,61,51,5,4,5,5,1,0,4,6,4,7,6,0,12,0,19,0,4,51,0,0,4,0,110,107,0,0,6,110,6,6,5,10,20,6,0,0,0,4,2,108,4,4,0,0,0,0,0,0,0,0,0,0,0,0,0,0,0,0,0,0,0,0,0,0,0,0,0,0,0,0,0,0,0,0,0,0,0,0,0,0,0,0,0,0],"split_type":[0,0,0,0,0,0,0,0,0,0,0,0,0,0,0,0,0,0,0,0,0,0,0,0,0,0,0,0,0,0,0,0,0,0,0,0,0,0,0,0,0,0,0,0,0,0,0,0,0,0,0,0,0,0,0,0,0,0,0,0,0,0,0,0,0,0,0,0,0,0,0,0,0,0,0,0,0,0,0,0,0,0,0,0,0,0,0,0,0,0,0,0,0,0,0,0,0,0,0,0,0,0,0,0,0,0,0,0,0,0,0,0,0],"sum_hessian":[2.006E3,4.66E2,1.54E3,3.63E2,1.03E2,1.505E3,3.5E1,3.27E2,3.6E1,4.7E1,5.6E1,7.27E2,7.78E2,1.4E1,2.1E1,2.89E2,3.8E1,1E1,2.6E1,2E0,5.4E1,6.12E2,1.15E2,1.15E2,6.63E2,1.9E1,2E0,4.6E1,2.43E2,2.4E1,1.4E1,4.6E1,8E0,3.61E2,2.51E2,5.9E1,5.6E1,3E0,1.12E2,4.52E2,2.11E2,1.8E1,1E0,4.5E1,1E0,2.27E2,1.6E1,2.3E1,1E0,2E0,1.2E1,3.7E1,9E0,7E0,1E0,5.7E1,3.04E2,1.1E2,1.41E2,4.5E1,1.4E1,3.8E1,1.8E1,2E0,1E0,7E0,1.05E2,3.76E2,7.6E1,1.1E2,1.01E2,1.7E1,1E0,4.4E1,1E0,1.94E2,3.3E1,1.1E1,5E0,1E0,1E0,3E0,3.4E1,2E0,7E0,3.4E1,2.3E1,2.25E2,7.9E1,7.4E1,3.6E1,9.2E1,4.9E1,3.4E1,1.1E1,1.1E1,3E0,3.6E1,2E0,1E1,8E0,3E0,4E0,2.3E1,8.2E1,1.1E2,2.66E2,6.5E1,1.1E1,8E1,3E1,6.7E1,3.4E1],"tree_param":{"num_deleted":"0","num_feature":"111","num_nodes":"113","size_leaf_vector":"1"}},{"base_weights":[1.3465098E0,3.7391228E1,-9.254385E0,5.016171E1,-1.3137476E1,-1.2470634E1,1.2082406E2,4.034746E1,1.217363E2,-3.742215E0,8.071605E0,-2.5886417E1,3.2948115E-1,1.3560474E2,5.813026E0,1.0348686E2,2.9340157E1,1.3763109E1,9.1131E1,6.629734E0,1.27120695E1,-3.228736E1,7.9342656E0,5.6023834E1,-1.4901384E1,1.4377085E1,7.8978496E0,3.4293988E0,1.05749725E2,3.7391193E1,-2.6042974E1,2.2522533E1,1.0912466E1,7.416637E0,-5.192963E-1,1.3287964E0,3.4765625E-1,-2.2006054E1,-4.722175E1,-5.9482756E0,1.9772543E1,2.7838112E1,3.4354135E2,4.265612E1,-1.7298752E1,1.08125435E2,3.565605E0,4.196299E1,-2.612417E1,-1.637805E0,-2.913033E0,-1.2128327E0,3.4217331E0,9.588907E0,3.9662256E0,6.6848755E-2,-9.3234256E-2,-4.8449535E1,-1.69155E1,-5.6775013E1,-4.0092278E1,-2.2327797E1,1.5255444E1,2.681612E1,1.3083014E0,6.946422E1,-4.106986E1,3.6444805E1,1.3843195E1,4.51689E1,9.1727704E-1,-1.3294629E1,-6.2568676E1,1.096814E1,2.0609589E0,4.933444E0,1.6064736E0,-2.9173722E0,-1.567104E0,1.0277224E0,-2.432869E-1,6.6783077E-1,4.193554E-2,-1.5870666E-2,2.589798E-2,-3.5510986E0,-6.7719765E0,-7.6097107E-1,-2.7163177E0,-4.968155E0,-7.2562804E0,-3.519833E0,-4.6846557E0,-2.4278474E0,1.9071563E0,-1.500988E0,2.357227E0,2.0998683E0,4.203376E0,-1.1455323E0,6.6849756E-1,1.0995921E0,7.459625E0,-2.4755208E0,-6.552952E0,4.6679177E0,5.971405E-1,-1.6781272E0,2.4154363E0,-4.876453E0,-8.71292E0],"categories":[],"categories_nodes":[],"categories_segments":[],"categories_sizes":[],"default_left":[0,0,0,0,0,0,0,0,0,0,0,0,0,0,0,0,0,0,0,0,0,0,0,0,0,0,0,0,0,0,0,0,0,0,0,0,0,0,0,0,0,0,0,0,0,0,0,0,0,0,0,0,0,0,0,0,0,0,0,0,0,0,0,0,0,0,0,0,0,0,0,0,0,0,0,0,0,0,0,0,0,0,0,0,0,0,0,0,0,0,0,0,0,0,0,0,0,0,0,0,0,0,0,0,0,0,0,0,0,0,0],"id":15,"left_children":[1,3,5,7,9,11,13,15,17,-1,19,21,23,25,-1,27,29,-1,31,33,35,37,39,41,43,-1,-1,-1,45,47,49,51,-1,53,55,-1,-1,57,59,61,63,65,67,69,71,73,-1,75,77,-1,-1,-1,-1,79,81,83,-1,85,87,89,91,93,95,97,99,101,103,-1,-1,105,-1,107,109,-1,-1,-1,-1,-1,-1,-1,-1,-1,-1,-1,-1,-1,-1,-1,-1,-1,-1,-1,-1,-1,-1,-1,-1,-1,-1,-1,-1,-1,-1,-1,-1,-1,-1,-1,-1,-1,-1],"loss_changes":[7.76786E5,2.9877644E5,6.5875775E5,2.5429244E5,4.8717285E4,2.634325E5,2.7330188E4,2.23532E5,8.8620625E3,0E0,2.569607E2,1.624029E5,6.675776E5,2.5176875E3,0E0,3.8889375E3,1.2537755E5,0E0,1.9763562E4,2.3450085E2,1.2309082E1,9.569419E4,1.9839059E4,1.3599936E6,8.601355E4,0E0,0E0,0E0,3.8046875E3,7.194881E4,5.971094E2,2.4411724E3,0E0,2.392915E2,1.272851E0,0E0,0E0,4.9659938E4,1.5159875E4,1.97898E4,8.418441E3,4.474503E5,1.3871125E4,1.689082E3,1.0684039E5,3.7310625E3,0E0,4.2734406E4,8.473242E1,0E0,0E0,0E0,0E0,2.0704858E2,1.5110983E2,1.7111042E-1,0E0,1.25549375E4,2.9927914E4,8.377906E3,3.3093438E3,3.0472432E3,6.646602E3,3.2781484E3,1.3804696E3,2.8285625E4,2.192179E4,0E0,0E0,1.0828398E3,0E0,7.182782E4,1.2024953E4,0E0,0E0,0E0,0E0,0E0,0E0,0E0,0E0,0E0,0E0,0E0,0E0,0E0,0E0,0E0,0E0,0E0,0E0,0E0,0E0,0E0,0E0,0E0,0E0,0E0,0E0,0E0,0E0,0E0,0E0,0E0,0E0,0E0,0E0,0E0,0E0,0E0,0E0],"parents":[2147483647,0,0,1,1,2,2,3,3,4,4,5,5,6,6,7,7,8,8,10,10,11,11,12,12,13,13,15,15,16,16,18,18,19,19,20,20,21,21,22,22,23,23,24,24,28,28,29,29,30,30,31,31,33,33,34,34,37,37,38,38,39,39,40,40,41,41,42,42,43,43,44,44,45,45,47,47,48,48,53,53,54,54,55,55,57,57,58,58,59,59,60,60,61,61,62,62,63,63,64,64,65,65,66,66,69,69,71,71,72,72],"right_children":[2,4,6,8,10,12,14,16,18,-1,20,22,24,26,-1,28,30,-1,32,34,36,38,40,42,44,-1,-1,-1,46,48,50,52,-1,54,56,-1,-1,58,60,62,64,66,68,70,72,74,-1,76,78,-1,-1,-1,-1,80,82,84,-1,86,88,90,92,94,96,98,100,102,104,-1,-1,106,-1,108,110,-1,-1,-1,-1,-1,-1,-1,-1,-1,-1,-1,-1,-1,-1,-1,-1,-1,-1,-1,-1,-1,-1,-1,-1,-1,-1,-1,-1,-1,-1,-1,-1,-1,-1,-1,-1,-1,-1],"split_conditions":[-8.188548E-1,7.3451877E-1,3.6398919E0,-1.8051518E-2,7.674438E-1,1.3198145E-1,1.3077831E0,-1.4181759E0,